tree
version=v4
num_class=1
num_tree_per_iteration=1
label_index=0
max_feature_idx=67
objective=binary sigmoid:1
feature_names=yield_curve_10y_3m yield_curve_10y_2y yield_curve_inversion yield_curve_inversion_depth yield_curve_inversion_duration yield_curve_slope_ma5 yield_curve_slope_ma20 yield_curve_slope_ma60 yield_curve_deterioration yield_curve_volatility credit_spread credit_spread_ma5 credit_spread_ma20 credit_spread_ma60 credit_spread_zscore credit_spread_widening credit_spread_widening_fast credit_spread_high credit_spread_extreme credit_spread_acceleration vix vix_ma5 vix_ma20 vix_ma60 vix_spike vix_elevated vix_extreme vix_trend vix_acceleration vix_zscore unemployment unemployment_ma3 unemployment_rising unemployment_high industrial_prod industrial_prod_ma3 industrial_prod_declining industrial_prod_recession consumer_sentiment consumer_sentiment_ma3 consumer_sentiment_low consumer_sentiment_declining sp500_returns_5d sp500_returns_20d sp500_returns_60d sp500_volatility_20d sp500_volatility_60d sp500_negative_returns sp500_high_volatility sp500_momentum sp500_drawdown sp500_drawdown_5pct sp500_drawdown_10pct m2_growth m2_growth_slowing debt_to_gdp debt_to_gdp_high fed_funds_rate fed_funds_rising fed_funds_high housing_starts housing_starts_declining lei lei_declining lei_recession financial_stress economic_stress market_stress
feature_infos=[-2.5450499581333585:2.9897973287260848] [-1.9689965169630363:2.1132487742765611] [-0.24132032497170561:4.143869771919328] [-10.985990148132059:0.1978324177168185] [-0.27783218280967503:4.724905539301246] [-2.4023676728163887:2.6657389067255135] [-2.3617936905646464:2.2350098381067527] [-2.3220467474368252:1.7946944898791395] [-4.9730438089036495:6.763848271811761] [-1.2066198565525308:7.7269682328606066] [-0.79449909037516941:6.1500608796985121] [-0.78879959580061687:6.1228856871910562] [-0.78094062831996647:6.02949430822071] [-0.77877749002615948:5.6751236629040491] [-2.8525775406254512:6.1324470050870499] [-7.0596330824406284:12.75480469145497] [-7.8333959069032559:13.039822869224661] [-0.091140373744107092:10.97208579380724] [-0.13835644299187003:7.2277082178150582] [-8.7719020677232695:9.0303017751933261] [-1.4016977129610508:8.8536517474286605] [-1.3839901948153233:7.8145616804796632] [-1.281652685980188:6.8338217023821635] [-1.2978143284020014:6.4074939534740754] none [-0.65479064187187974:1.5272056991243108] [-0.26538492669714348:3.7681115218016781] [-10.620542987923828:11.162728523132936] [-13.693325173415838:8.8761844867744522] [-3.0097038329426491:6.7500299156728572] [-1.4623826368050667:2.7518039405790762] [-1.4627152915759967:2.7515792596373387] [-0.11702811438642521:8.5449552463779259] [-1.7219630641872334:0.58073254926173445] [-1.8799488712759691:1.3467779437073624] [-1.8794683582229008:1.3469588499277283] [-0.18074256993863339:5.5327308908992769] none [-2.6888222798826154:2.0417148499450235] [-2.690609291279161:2.0436372049273333] [-0.34393333125314579:2.9075402385585254] [-0.094747341007285213:10.554385900107832] [-19.02687287229082:16.289355307214358] [-16.654771780430821:14.642683933722267] [-11.822117180443641:11.880849210849705] [-0.17785022066020137:9.7310317954069365] [-0.18498479966854794:8.2487856414797847] [-0.11605984475864732:8.6162445079911478] none [-12.916859711434414:12.754271285944839] [-18.152724259125211:0.1184839432386498] none none [-1.5073133202788416:9.4869388436124442] [-0.32998726583779497:3.030419969271025] [-1.7094973026756108:2.0542253679357909] [-0.32732020091091008:3.055112386027711] [-1.2788493924155402:3.2369594008235727] none [-1.2807697801316114:0.780780445879384] [-2.1987885103446629:2.1953557138249158] [-0.22642925573386929:4.4163904384128561] [-4.5234526815324427:2.4233164322157701] [-0.22562391850826535:4.4321542087009131] none [-2.9245077821853327:5.0654616205088709] [-0.19168773746125373:10.503447163851821] [-0.11664986294712423:12.516994242544969]
tree_sizes=462 357 356 445 458 446 463 466 464 445 447 445 357 358 467 358 359 357 358 447 466 472 466 474 465 466 469 464 461 464 468 471 462 465 465 463 465 467 468 464 466 465 468 465 464 466 471 465 471 465 471 463 460 464 358 469 471 465 463 465 469 359 472 473 447 442 444 472 464 447 443 471 468 443 443 443 445 445 446 447 471 442 447 445 446 466 443 445 446 463 445 469 445 444 471 445 443 446 447 465 467 444 471 472 447 475 448 471 446 470 448 445 442 473 471 474 445 473 443 467 470 474 467 449 469 472 468 469 445 474 467 467 465 445 467 448 470 468 472 467 464 470 467 470 469 464 469 466 471 445 448 466 447 472 448 447 470 470 472 467 471 444 468 466 474 469 471 465 466 474 468 469 468 469 446 472 468 444 467 473 470 473 466 470 468 474 472 467 470 466 473 469 474 466 473 465 469 469 469 467 468 470 467 474 464 468 471 472 464 465 467 467 467 469 466 465 472 473 469 470 469 467 469 466 465 462 469 465 466 466 472 464 468 470 469 467 469 468 471 467 471 468 469 469 465 465 464 471 465 474 469 464 469 468 470 469 467 468 447 468 471 474 470 468 463 469 467 464 463 467 469 470 469 465 466 472 462 467 469 469 468 472 469 474 465 468 466 470 474 466 463 469 465 474 472 468 465 469 466 465 461 466 469 467 466 469 462 473 466 466 464 470 469 467 465 469 469 468 469 474 474 469 468 469 464 465 470 465 469 474 469 466 472 469 465 467 470 467 467 465 470 465 469 467 465 474 464 467 474 468 470 470 469 464 470 465 468 469 468 466 468 468 472 467 471 464 474 468 465 475 465 467 464 465 468 470 466 466 465 466 472 470 468 467 468 469 474 464 465 469 472 474 468 469 470 465 468 463 473 465 468 467 474 471 468 472 459 466 464 469 470 470 470 468 470 466 466 464 466 469 470 466 472 469 472 469 468 464 470 471 467 469 468 470 464 466 470 464 469 474 471 468 470 467 465 471 473 468 473 471 469 465 468 465 473 464 469 467 468 472 471 469 468 467 468 467 469 468 468 468 470 465 466 470 467 467 469 470 469 465 469 465 469 469 469 469 462 461 469 467 471 468 473 473 464 474 463 464 472 472 462 468 463 473 471 463 464 464 461 468 468 474 463 471 469 467 469 469 468 467 467 470 474 469 472 469 468 469 469 469 469 461 467 463 464 463 470 470 470 477 473 467 462 463 469 469 470 464 470 469 472 471 467 474 470 463 464 467 469 463 470 472 468 469 459 474 470 463 469 473 474 468 469 469 469 469 469 461 467 471 467 465 473 469 470 469 464 461 475 466 474 469 470 472 469 474 465 469 470 464 468 469 468 469 464 463 464 463 469 469 463 462 466 469 468 469 464 467 469 469 474 468 467 468 469 464 469 465 469 463 477 466 468 463 471 467 462 464 461 462 470 473 466 464 468 468 469 468 473 468 471 463 473 463 468 466 468 469 466 470 464 462 469 472 468 470 470 463 465 460 463 467 473 469 469 466 469 462 462 469 468 472 472 464 468 466 462 466 469 464 462 468 464 466 468 468 464 467 465 465 473 469 466 473 465 468 465 464 464 464 467 469 468 463 469 468 461 463 468 467 464 468 469 462 473 466 463 463 468 472 474 470 468 468 469 464 463 468 463 464 469 464 468 466 473 467 469 463 460 469 471 463 471 469 468 469 468 457 467 474 468 468 463 468 463 464 469 464 468 469 468 468 460 472 461 470 471 462 469 469 468 472 469 460 456 469 464 469 448 474 461 464 462 458 464 469 468 459 473 458 470 459 457 463 462 463 457 461 462 472 459 457 459 469 473 459 473 458 455 469 462 458 463 459 464 466 457 469 456 468 459 468 462 459 469 466 464 474 458 457 457 463 467 457 458 468 469 458 471 470 458 474 459 469 467 459 458 473 468 463 470 462 467 474 459 471 456 464 457 471 459 469 456 469 464 457 457 459 469 463 459 469 469 472 469 472 469 458 459 461 469 457 459 472 469 463 463 469 457 469 458 459 469 469 467 456 468 469 474 467 469 462 469 467 467 459 459 469 472 470 469 471 472 459 459 470 473 472 469 472 469 461 468 457 463 459 458 464 463 466 463 456 469 465 469 457 468 468 458 468 463 464 462 472 476 458 465 466 466 467 463 463 458 471 462 459 459 463 467 469 468 462 457 457 471 443 469 459 457 464 469 459 458 468 464 463 471 456 457 458 467 469 468 457 467 463 472 474 459 468

Tree=0
num_leaves=3
num_cat=0
split_feature=55 55
split_gain=33194.7 3116.14
threshold=1.9756251521428381 2.0333402481048934
decision_type=2 2
left_child=-1 -2
right_child=1 -3
leaf_value=-0.61286680102775037 -0.58703180569501068 -0.61240372298530943
leaf_weight=79.924843845888972 11.948046697303651 2.1025636605918399
leaf_count=8743 131 230
internal_value=-0.612404 -0.588639
internal_weight=0 14.0506
internal_count=9104 361
is_linear=0
shrinkage=0.130957


Tree=1
num_leaves=2
num_cat=0
split_feature=55
split_gain=30226.3
threshold=1.9756251521428381
decision_type=2
left_child=-1
right_child=-2
leaf_value=-0.00041671049525063568 0.019907002834761968
leaf_weight=79.647907466627657 16.547868535853922
leaf_count=8743 361
internal_value=0
internal_weight=0
internal_count=9104
is_linear=0
shrinkage=0.000589943


Tree=2
num_leaves=2
num_cat=0
split_feature=55
split_gain=27228.1
threshold=1.9756251521428381
decision_type=2
left_child=-1
right_child=-2
leaf_value=-0.0005121523191530822 0.022603757321011504
leaf_weight=79.372249468229711 19.510713397525251
leaf_count=8743 361
internal_value=0
internal_weight=0
internal_count=9104
is_linear=0
shrinkage=0.000725952


Tree=3
num_leaves=3
num_cat=0
split_feature=56 12
split_gain=20753.3 5364.87
threshold=1.0000000180025095e-35 0.50667876045659954
decision_type=2 2
left_child=-1 -2
right_child=1 -3
leaf_value=-0.00039121179430157664 0 0.017030009353090819
leaf_weight=74.393432892858982 6.4621106814593103 20.940895635634661
leaf_count=8223 645 236
internal_value=0 0.0146303
internal_weight=0 27.403
internal_count=9104 881
is_linear=0
shrinkage=0.000567431


Tree=4
num_leaves=3
num_cat=0
split_feature=55 39
split_gain=22179.4 176.434
threshold=1.9756251521428381 0.28784308396186226
decision_type=2 2
left_child=-1 -2
right_child=1 -3
leaf_value=-0.00041911869364067919 0.016671087664007007 0.0011249551957267833
leaf_weight=78.909603272564709 21.705228212289516 4.20174975413829
leaf_count=8743 130 231
internal_value=0 0.015868
internal_weight=0 25.907
internal_count=9104 361
is_linear=0
shrinkage=0.000595316


Tree=5
num_leaves=3
num_cat=0
split_feature=56 13
split_gain=17301.2 4312.11
threshold=1.0000000180025095e-35 0.58413880617562641
decision_type=2 2
left_child=-1 -2
right_child=1 -3
leaf_value=-0.00051831176957335505 0 0.019584552836261149
leaf_weight=73.886271916329861 6.7813348844647399 27.045117486268282
leaf_count=8223 660 221
internal_value=0 0.0170212
internal_weight=0 33.8265
internal_count=9104 881
is_linear=0
shrinkage=0.000753726


Tree=6
num_leaves=3
num_cat=0
split_feature=34 13
split_gain=14610.5 6917.23
threshold=1.0534378499626318 0.58413880617562641
decision_type=2 2
left_child=-1 -2
right_child=1 -3
leaf_value=-0.00040800085532818881 -3.8912183537449083e-05 0.015931550445782396
leaf_weight=67.852728303521872 11.911458862014113 27.0322978887707
leaf_count=7517 1278 309
internal_value=0 0.012587
internal_weight=0 38.9438
internal_count=9104 1587
is_linear=0
shrinkage=0.000612953


Tree=7
num_leaves=3
num_cat=0
split_feature=34 11
split_gain=13252.5 4904.41
threshold=1.0534378499626318 0.47321872193399678
decision_type=2 2
left_child=-1 -2
right_child=1 -3
leaf_value=-0.00044202989896962929 -4.8586744134290654e-06 0.015319608658833249
leaf_weight=67.680913150310516 10.122256520204244 32.787210977636278
leaf_count=7517 1081 506
internal_value=0 0.0127467
internal_weight=0 42.9095
internal_count=9104 1587
is_linear=0
shrinkage=0.000664761


Tree=8
num_leaves=3
num_cat=0
split_feature=34 13
split_gain=12115.7 5422.68
threshold=1.0534378499626318 0.58413880617562641
decision_type=2 2
left_child=-1 -2
right_child=1 -3
leaf_value=-0.00043765459932895706 -4.8538719037646361e-05 0.014697048481654705
leaf_weight=67.460342133417726 12.25291117094457 34.46934182010591
leaf_count=7517 1278 309
internal_value=0 0.0118758
internal_weight=0 46.7223
internal_count=9104 1587
is_linear=0
shrinkage=0.000659065


Tree=9
num_leaves=3
num_cat=0
split_feature=56 12
split_gain=15481.6 3267.93
threshold=1.0000000180025095e-35 0.50667876045659954
decision_type=2 2
left_child=-1 -2
right_child=1 -3
leaf_value=-0.00034563127958240491 0 0.011742067555241126
leaf_weight=74.078731666319072 6.151894590817391 32.048281472176313
leaf_count=8223 645 236
internal_value=0 0.0104473
internal_weight=0 38.2002
internal_count=9104 881
is_linear=0
shrinkage=0.000502108


Tree=10
num_leaves=3
num_cat=0
split_feature=56 13
split_gain=13786.2 2957.23
threshold=1.0000000180025095e-35 0.58413880617562641
decision_type=2 2
left_child=-1 -2
right_child=1 -3
leaf_value=-0.00039459044229023867 0 0.012335077654911349
leaf_weight=73.825569953769445 6.5318358652293673 36.422719578258693
leaf_count=8223 660 221
internal_value=0 0.0109951
internal_weight=0 42.9546
internal_count=9104 881
is_linear=0
shrinkage=0.000573976


Tree=11
num_leaves=3
num_cat=0
split_feature=56 62
split_gain=14991.6 3227.03
threshold=1.0000000180025095e-35 0.28537778962482979
decision_type=2 2
left_child=-1 -2
right_child=1 -3
leaf_value=-0.0004038746463847757 0.013451399466282614 0
leaf_weight=73.824473726563156 33.111670910380781 6.3314407654106608
leaf_count=8223 271 610
internal_value=0 0.0119554
internal_weight=0 39.4431
internal_count=9104 881
is_linear=0
shrinkage=0.00058749


Tree=12
num_leaves=2
num_cat=0
split_feature=55
split_gain=14943.9
threshold=1.9756251521428381
decision_type=2
left_child=-1
right_child=-2
leaf_value=-0.00046066834519917509 0.013051596553607521
leaf_weight=78.490251370705664 40.68208377994597
leaf_count=8743 361
internal_value=0
internal_weight=0
internal_count=9104
is_linear=0
shrinkage=0.000655561


Tree=13
num_leaves=2
num_cat=0
split_feature=55
split_gain=13602.1
threshold=1.9756251521428381
decision_type=2
left_child=-1
right_child=-2
leaf_value=-0.00046440282487821851 0.012317333626022057
leaf_weight=78.219936882145703 44.672915749251842
leaf_count=8743 361
internal_value=0
internal_weight=0
internal_count=9104
is_linear=0
shrinkage=0.000661694


Tree=14
num_leaves=3
num_cat=0
split_feature=34 13
split_gain=9151.19 3703.32
threshold=1.0534378499626318 0.58413880617562641
decision_type=2 2
left_child=-1 -2
right_child=1 -3
leaf_value=-0.00045388320776944599 -5.4146939937664654e-05 0.012218436572712326
leaf_weight=66.808728633448482 12.430184759199618 47.443187600001693
leaf_count=7517 1278 309
internal_value=0 0.0102091
internal_weight=0 59.8734
internal_count=9104 1587
is_linear=0
shrinkage=0.000686224


Tree=15
num_leaves=2
num_cat=0
split_feature=55
split_gain=11429.7
threshold=1.9756251521428381
decision_type=2
left_child=-1
right_child=-2
leaf_value=-0.00038358901797537449 0.0090053097851588819
leaf_weight=77.890536942519248 52.653642427176237
leaf_count=8743 361
internal_value=0
internal_weight=0
internal_count=9104
is_linear=0
shrinkage=0.00054737


Tree=16
num_leaves=2
num_cat=0
split_feature=55
split_gain=12712.1
threshold=1.9756251521428381
decision_type=2
left_child=-1
right_child=-2
leaf_value=-0.00033935225546125692 0.0086104128791414086
leaf_weight=77.717935910448432 47.585959915071726
leaf_count=8743 361
internal_value=0
internal_weight=0
internal_count=9104
is_linear=0
shrinkage=0.000484645


Tree=17
num_leaves=2
num_cat=0
split_feature=55
split_gain=10865.4
threshold=1.9756251521428381
decision_type=2
left_child=-1
right_child=-2
leaf_value=-0.00041298048464252508 0.0093806325252731512
leaf_weight=77.560888127423823 55.04418315179646
leaf_count=8743 361
internal_value=0
internal_weight=0
internal_count=9104
is_linear=0
shrinkage=0.00059022


Tree=18
num_leaves=2
num_cat=0
split_feature=55
split_gain=11016.7
threshold=1.9756251521428381
decision_type=2
left_child=-1
right_child=-2
leaf_value=-0.00045726691174662114 0.010488955317743328
leaf_weight=77.561696443706751 54.357787732034922
leaf_count=8743 361
internal_value=0
internal_weight=0
internal_count=9104
is_linear=0
shrinkage=0.000653511


Tree=19
num_leaves=3
num_cat=0
split_feature=56 62
split_gain=9834.17 2028.1
threshold=1.0000000180025095e-35 0.28537778962482979
decision_type=2 2
left_child=-1 -2
right_child=1 -3
leaf_value=-0.00042581938909249029 0.010438854909185141 0
leaf_weight=72.754976241849363 51.394404696300626 7.0813463339582077
leaf_count=8223 271 610
internal_value=0 0.00943984
internal_weight=0 58.4758
internal_count=9104 881
is_linear=0
shrinkage=0.000622859


Tree=20
num_leaves=3
num_cat=0
split_feature=35 13
split_gain=9306.3 3837.69
threshold=1.0506589713399899 0.58413880617562641
decision_type=2 2
left_child=-1 -2
right_child=1 -3
leaf_value=-0.00044345304019131475 -5.4764868173703053e-05 0.012158744111084599
leaf_weight=66.547752943821251 12.523403214290736 46.385484574362636
leaf_count=7503 1291 310
internal_value=0 0.0101214
internal_weight=0 58.9089
internal_count=9104 1601
is_linear=0
shrinkage=0.000671521


Tree=21
num_leaves=3
num_cat=0
split_feature=56 13
split_gain=1017.8 778.331
threshold=1.0000000180025095e-35 0.58413880617562641
decision_type=2 2
left_child=-1 -2
right_child=1 -3
leaf_value=-0.00086053243244153886 -0.0008171506249412384 0.00033989190711036094
leaf_weight=2054.2239002883434 162.76091438531876 270.88234749436378
leaf_count=8223 660 221
internal_value=0 -0.000101557
internal_weight=0 433.643
internal_count=9104 881
is_linear=0
shrinkage=0.000440404


Tree=22
num_leaves=3
num_cat=0
split_feature=34 13
split_gain=4767.8 2177.89
threshold=1.0534378499626318 0.58413880617562641
decision_type=2 2
left_child=-1 -2
right_child=1 -3
leaf_value=-0.00052257734487846095 -0.00025872983836520188 0.0050872866949759005
leaf_weight=164.55580171942711 30.732941534370184 114.59679633006454
leaf_count=7517 1278 309
internal_value=0 0.00402539
internal_weight=0 145.33
internal_count=9104 1587
is_linear=0
shrinkage=0.00060905


Tree=23
num_leaves=3
num_cat=0
split_feature=44 34
split_gain=886.049 202.729
threshold=1.0000000180025095e-35 1.1494484371002196
decision_type=2 2
left_child=1 -1
right_child=-2 -3
leaf_value=-0.00066750762668736554 0.00012850338329974689 -0.00029749189692143078
leaf_weight=2018.6904825717211 180.25026912987232 277.29032415151596
leaf_count=8097 214 793
internal_value=0 -0.000627245
internal_weight=0 2295.98
internal_count=9104 8890
is_linear=0
shrinkage=0.000340412


Tree=24
num_leaves=3
num_cat=0
split_feature=55 38
split_gain=4636.92 330.784
threshold=1.9756251521428381 0.30718456900822305
decision_type=2 2
left_child=-1 -2
right_child=1 -3
leaf_value=-0.00047077232270897553 0.0025699463056191654 0.00031788806738176651
leaf_weight=385.73257206007838 164.48253193497658 28.927845180034637
leaf_count=8743 130 231
internal_value=0 0.00231716
internal_weight=0 193.41
internal_count=9104 361
is_linear=0
shrinkage=0.000484149


Tree=25
num_leaves=3
num_cat=0
split_feature=55 39
split_gain=4424.25 322.602
threshold=1.9756251521428381 0.22955356253709722
decision_type=2 2
left_child=-1 -2
right_child=1 -3
leaf_value=-0.00070752727747526954 0.0037170460609234515 0.00045196393174048608
leaf_weight=384.66350482776761 170.10390874743462 29.832869715988636
leaf_count=8743 127 234
internal_value=0 0.00334836
internal_weight=0 199.937
internal_count=9104 361
is_linear=0
shrinkage=0.000727884


Tree=26
num_leaves=3
num_cat=0
split_feature=35 12
split_gain=2934.88 1378.09
threshold=1.0506589713399899 0.50667876045659954
decision_type=2 2
left_child=-1 -2
right_child=1 -3
leaf_value=-0.00059283171432519789 -0.00040188809507550404 0.0028012803322558931
leaf_weight=326.76599467545748 56.619749162346125 202.49436055496335
leaf_count=7503 1184 417
internal_value=0 0.00210055
internal_weight=0 259.114
internal_count=9104 1601
is_linear=0
shrinkage=0.000618271


Tree=27
num_leaves=3
num_cat=0
split_feature=55 38
split_gain=4884.3 343.041
threshold=1.9756251521428381 0.30718456900822305
decision_type=2 2
left_child=-1 -2
right_child=1 -3
leaf_value=-0.00054532941292811422 0.0031220379606177536 0.00039208983408209525
leaf_weight=382.9661403670907 157.82781023532152 27.940554618835449
leaf_count=8743 130 231
internal_value=0 0.00281674
internal_weight=0 185.768
internal_count=9104 361
is_linear=0
shrinkage=0.000561379


Tree=28
num_leaves=3
num_cat=0
split_feature=55 38
split_gain=5727 403.767
threshold=1.9756251521428381 0.30718456900822305
decision_type=2 2
left_child=-1 -2
right_child=1 -3
leaf_value=-0.0004950947809176261 0.0032541296928323333 0.00040858402684260727
leaf_weight=383.9081474468112 138.95244543254375 25.561296977102757
leaf_count=8743 130 231
internal_value=0 0.00293183
internal_weight=0 164.514
internal_count=9104 361
is_linear=0
shrinkage=0.000509474


Tree=29
num_leaves=3
num_cat=0
split_feature=55 39
split_gain=4638.66 325.85
threshold=1.9756251521428381 0.22955356253709722
decision_type=2 2
left_child=-1 -2
right_child=1 -3
leaf_value=-0.00076904698385588859 0.0042152375558172292 0.00052772952225994645
leaf_weight=381.74709418788552 164.07590448111296 28.714076191186905
leaf_count=8743 127 234
internal_value=0 0.00380446
internal_weight=0 192.79
internal_count=9104 361
is_linear=0
shrinkage=0.000791944


Tree=30
num_leaves=3
num_cat=0
split_feature=34 13
split_gain=3072.84 1617.19
threshold=1.0534378499626318 0.58413880617562641
decision_type=2 2
left_child=-1 -2
right_child=1 -3
leaf_value=-0.0006137370288604333 -0.00042870464475793538 0.0031173263840676506
leaf_weight=324.94182152301073 60.561005424708128 190.41308043152094
leaf_count=7517 1278 309
internal_value=0 0.00226953
internal_weight=0 250.974
internal_count=9104 1587
is_linear=0
shrinkage=0.000640686


Tree=31
num_leaves=3
num_cat=0
split_feature=56 13
split_gain=4023.62 1127.46
threshold=1.0000000180025095e-35 0.58413880617562641
decision_type=2 2
left_child=-1 -2
right_child=1 -3
leaf_value=-0.00060277586447633042 -0.00030141932593174197 0.0032685755081389954
leaf_weight=359.32516573369503 34.005692776292562 178.32183402404189
leaf_count=8223 660 221
internal_value=0 0.00269325
internal_weight=0 212.328
internal_count=9104 881
is_linear=0
shrinkage=0.000623632


Tree=32
num_leaves=3
num_cat=0
split_feature=55 45
split_gain=4489.42 36.8046
threshold=1.9756251521428381 4.2338858287348184
decision_type=2 2
left_child=-1 -2
right_child=1 -3
leaf_value=-0.00078893818211434757 0.0040588998136387505 0.0010543223612953503
leaf_weight=379.36355106905103 169.0158106982708 28.052931092679501
leaf_count=8743 211 150
internal_value=0 0.0038052
internal_weight=0 197.069
internal_count=9104 361
is_linear=0
shrinkage=0.000813057


Tree=33
num_leaves=3
num_cat=0
split_feature=55 38
split_gain=4388.41 294.538
threshold=1.9756251521428381 0.30718456900822305
decision_type=2 2
left_child=-1 -2
right_child=1 -3
leaf_value=-0.00051854222238811062 0.0027146219866920574 0.00034717024289619052
leaf_weight=377.69436642155051 170.9792111068964 29.096025370061398
leaf_count=8743 130 231
internal_value=0 0.00245747
internal_weight=0 200.075
internal_count=9104 361
is_linear=0
shrinkage=0.000534695


Tree=34
num_leaves=3
num_cat=0
split_feature=35 12
split_gain=2915.68 1358.08
threshold=1.0506589713399899 0.50667876045659954
decision_type=2 2
left_child=-1 -2
right_child=1 -3
leaf_value=-0.00067062848764995887 -0.0004523379460263712 0.0031724910382369049
leaf_weight=320.53530608862638 55.7868448831141 202.75300975516438
leaf_count=7503 1184 417
internal_value=0 0.00238884
internal_weight=0 258.54
internal_count=9104 1601
is_linear=0
shrinkage=0.000701305


Tree=35
num_leaves=3
num_cat=0
split_feature=55 45
split_gain=4203.09 29.9757
threshold=1.9756251521428381 4.2338858287348184
decision_type=2 2
left_child=-1 -2
right_child=1 -3
leaf_value=-0.00082375833125483038 0.0040210700022366179 0.001064314155058707
leaf_weight=374.79986377805471 176.97779342532158 28.850708052515984
leaf_count=8743 211 150
internal_value=0 0.00377524
internal_weight=0 205.829
internal_count=9104 361
is_linear=0
shrinkage=0.000850223


Tree=36
num_leaves=3
num_cat=0
split_feature=55 39
split_gain=4584.17 317.154
threshold=1.9756251521428381 0.22955356253709722
decision_type=2 2
left_child=-1 -2
right_child=1 -3
leaf_value=-0.00061886081880794478 0.0033788962237629935 0.00042805405162361882
leaf_weight=375.45516123995185 164.94026441127062 28.63454208523035
leaf_count=8743 127 234
internal_value=0 0.00305325
internal_weight=0 193.575
internal_count=9104 361
is_linear=0
shrinkage=0.000638607


Tree=37
num_leaves=3
num_cat=0
split_feature=55 55
split_gain=1410.96 465.178
threshold=1.9756251521428381 2.0333402481048934
decision_type=2 2
left_child=-1 -2
right_child=1 -3
leaf_value=-0.00081546698260286598 0.0004236344997218012 -0.00078173595361267514
leaf_weight=2182.2702676653862 239.20222970843315 53.099075078964233
leaf_count=8743 131 230
internal_value=0 0.000155047
internal_weight=0 292.301
internal_count=9104 361
is_linear=0
shrinkage=0.000424137


Tree=38
num_leaves=3
num_cat=0
split_feature=34 13
split_gain=2181.55 1255.5
threshold=1.0534378499626318 0.58413880617562641
decision_type=2 2
left_child=-1 -2
right_child=1 -3
leaf_value=-0.00079932536423796816 -0.00063537194383259414 0.0025323336929195125
leaf_weight=496.21288894116879 92.479141592979431 261.49817024171352
leaf_count=7517 1278 309
internal_value=0 0.00169399
internal_weight=0 353.977
internal_count=9104 1587
is_linear=0
shrinkage=0.000786897


Tree=39
num_leaves=3
num_cat=0
split_feature=55 38
split_gain=3280.4 275.57
threshold=1.9756251521428381 0.30718456900822305
decision_type=2 2
left_child=-1 -2
right_child=1 -3
leaf_value=-0.00073852824517134494 0.0024986347326039051 0.00017709259013649062
leaf_weight=578.62946772575378 230.33581119030714 40.952144674956799
leaf_count=8743 130 231
internal_value=0 0.00220916
internal_weight=0 271.288
internal_count=9104 361
is_linear=0
shrinkage=0.000720887


Tree=40
num_leaves=3
num_cat=0
split_feature=34 13
split_gain=2526.5 1531.11
threshold=1.0534378499626318 0.58413880617562641
decision_type=2 2
left_child=-1 -2
right_child=1 -3
leaf_value=-0.00049220317035685187 -0.0003883165509163736 0.0018144100850960563
leaf_weight=497.09041498601437 91.137531578540802 234.82294946908951
leaf_count=7517 1278 309
internal_value=0 0.00119769
internal_weight=0 325.96
internal_count=9104 1587
is_linear=0
shrinkage=0.000484487


Tree=41
num_leaves=3
num_cat=0
split_feature=55 38
split_gain=3701.89 290.016
threshold=1.9756251521428381 0.30718456900822305
decision_type=2 2
left_child=-1 -2
right_child=1 -3
leaf_value=-0.00054919049471563333 0.0020606744544702676 0.00018220123871005777
leaf_weight=581.95707765221596 213.79418859630823 37.960014939308167
leaf_count=8743 130 231
internal_value=0 0.0018314
internal_weight=0 251.754
internal_count=9104 361
is_linear=0
shrinkage=0.000535709


Tree=42
num_leaves=3
num_cat=0
split_feature=34 13
split_gain=2220.91 1278.97
threshold=1.0534378499626318 0.58413880617562641
decision_type=2 2
left_child=-1 -2
right_child=1 -3
leaf_value=-0.00078477792760223034 -0.00062200235382123303 0.0025359811890003302
leaf_weight=492.94885231554508 91.648117460310459 258.18237048387527
leaf_count=7517 1278 309
internal_value=0 0.00169885
internal_weight=0 349.83
internal_count=9104 1587
is_linear=0
shrinkage=0.000773331


Tree=43
num_leaves=3
num_cat=0
split_feature=55 39
split_gain=3343.76 277.568
threshold=1.9756251521428381 0.22955356253709722
decision_type=2 2
left_child=-1 -2
right_child=1 -3
leaf_value=-0.0007648815274233728 0.0026394524148020187 0.00019752880995312322
leaf_weight=574.87626687437296 227.28426306694746 40.414137803018093
leaf_count=8743 127 234
internal_value=0 0.00233613
internal_weight=0 267.698
internal_count=9104 361
is_linear=0
shrinkage=0.000747271


Tree=44
num_leaves=3
num_cat=0
split_feature=55 39
split_gain=3295.7 269.56
threshold=1.9756251521428381 0.22955356253709722
decision_type=2 2
left_child=-1 -2
right_child=1 -3
leaf_value=-0.00060139785942053044 0.0020500686147785496 0.00015479155651878455
leaf_weight=572.35700353980064 229.31936491280794 40.449072271585464
leaf_count=8743 127 234
internal_value=0 0.00181648
internal_weight=0 269.768
internal_count=9104 361
is_linear=0
shrinkage=0.000587898


Tree=45
num_leaves=3
num_cat=0
split_feature=55 38
split_gain=3542.71 276.107
threshold=1.9756251521428381 0.30718456900822305
decision_type=2 2
left_child=-1 -2
right_child=1 -3
leaf_value=-0.00040064204201731431 0.0014467325999473787 0.00012404376969916463
leaf_weight=578.88848072290421 219.98442988097668 38.631436891853809
leaf_count=8743 130 231
internal_value=0 0.00128628
internal_weight=0 258.616
internal_count=9104 361
is_linear=0
shrinkage=0.000391069


Tree=46
num_leaves=3
num_cat=0
split_feature=56 13
split_gain=2746.34 810.636
threshold=1.0000000180025095e-35 0.58413880617562641
decision_type=2 2
left_child=-1 -2
right_child=1 -3
leaf_value=-0.00062886124764181676 -0.00040018586191155597 0.0020554232609712691
leaf_weight=535.93497737497091 50.867768689990044 254.11027742177248
leaf_count=8223 660 221
internal_value=0 0.00162744
internal_weight=0 304.978
internal_count=9104 881
is_linear=0
shrinkage=0.000617079


Tree=47
num_leaves=3
num_cat=0
split_feature=55 39
split_gain=4071.4 312.642
threshold=1.9756251521428381 0.22955356253709722
decision_type=2 2
left_child=-1 -2
right_child=1 -3
leaf_value=-0.00036509589823271413 0.0015016650975161407 0.00014685896064400161
leaf_weight=574.86051118373871 199.56781831383705 35.869745135307312
leaf_count=8743 127 234
internal_value=0 0.00133688
internal_weight=0 235.438
internal_count=9104 361
is_linear=0
shrinkage=0.000356784


Tree=48
num_leaves=3
num_cat=0
split_feature=56 13
split_gain=3178.24 957.872
threshold=1.0000000180025095e-35 0.58413880617562641
decision_type=2 2
left_child=-1 -2
right_child=1 -3
leaf_value=-0.00053718986064609983 -0.00033255960131079777 0.0020091985427475351
leaf_weight=539.83500535041094 49.105691641569138 230.74341985583305
leaf_count=8223 660 221
internal_value=0 0.00158595
internal_weight=0 279.849
internal_count=9104 881
is_linear=0
shrinkage=0.000526648


Tree=49
num_leaves=3
num_cat=0
split_feature=55 39
split_gain=3423.55 267.242
threshold=1.9756251521428381 0.22955356253709722
decision_type=2 2
left_child=-1 -2
right_child=1 -3
leaf_value=-0.00079600576210347713 0.0028064848928194622 0.00023624206405643421
leaf_weight=569.80808532238007 224.07359701395035 39.133962087333202
leaf_count=8743 127 234
internal_value=0 0.0024955
internal_weight=0 263.208
internal_count=9104 361
is_linear=0
shrinkage=0.000778647


Tree=50
num_leaves=3
num_cat=0
split_feature=56 13
split_gain=3348.37 1053.15
threshold=1.0000000180025095e-35 0.58413880617562641
decision_type=2 2
left_child=-1 -2
right_child=1 -3
leaf_value=-0.00037910853936484181 -0.00023655529414135318 0.0015041954476090072
leaf_weight=536.77724566310644 49.525940895080566 220.78826862573624
leaf_count=8223 660 221
internal_value=0 0.00117812
internal_weight=0 270.314
internal_count=9104 881
is_linear=0
shrinkage=0.000372016


Tree=51
num_leaves=3
num_cat=0
split_feature=55 38
split_gain=3589.71 262.226
threshold=1.9756251521428381 0.30718456900822305
decision_type=2 2
left_child=-1 -2
right_child=1 -3
leaf_value=-0.00053859195016773144 0.0019730335622259328 0.000186114391182596
leaf_weight=570.70694601535797 218.01817183941603 37.508919946849346
leaf_count=8743 130 231
internal_value=0 0.0017624
internal_weight=0 255.527
internal_count=9104 361
is_linear=0
shrinkage=0.000526765


Tree=52
num_leaves=3
num_cat=0
split_feature=55 45
split_gain=3794 122.759
threshold=1.9756251521428381 4.2787606251725752
decision_type=2 2
left_child=-1 -2
right_child=1 -3
leaf_value=-0.00046098678084366217 0.0017075606624609666 0.0002661484308721843
leaf_weight=571.94950940459967 217.26758046448231 29.394407585263252
leaf_count=8743 220 141
internal_value=0 0.00158554
internal_weight=0 246.662
internal_count=9104 361
is_linear=0
shrinkage=0.00045078


Tree=53
num_leaves=3
num_cat=0
split_feature=55 38
split_gain=3518.22 259.788
threshold=1.9756251521428381 0.30718456900822305
decision_type=2 2
left_child=-1 -2
right_child=1 -3
leaf_value=-0.00066562869897578646 0.00240062926691931 0.00022117002681594565
leaf_weight=568.04609575867653 220.60502970963717 37.951929412782192
leaf_count=8743 130 231
internal_value=0 0.00214295
internal_weight=0 258.557
internal_count=9104 361
is_linear=0
shrinkage=0.000651424


Tree=54
num_leaves=2
num_cat=0
split_feature=55
split_gain=3899.85
threshold=1.9756251521428381
decision_type=2
left_child=-1
right_child=-2
leaf_value=-0.00063671384459517344 0.002250921010694411
leaf_weight=569.31793292611837 241.80182917416096
leaf_count=8743 361
internal_value=0
internal_weight=0
internal_count=9104
is_linear=0
shrinkage=0.000622948


Tree=55
num_leaves=3
num_cat=0
split_feature=56 13
split_gain=2956.27 885.302
threshold=1.0000000180025095e-35 0.58413880617562641
decision_type=2 2
left_child=-1 -2
right_child=1 -3
leaf_value=-0.00068668183437297617 -0.00043140949790314846 0.002417455414731825
leaf_weight=531.18738519400358 49.83987383544445 241.52262475341558
leaf_count=8223 660 221
internal_value=0 0.00191206
internal_weight=0 291.362
internal_count=9104 881
is_linear=0
shrinkage=0.000674721


Tree=56
num_leaves=3
num_cat=0
split_feature=56 13
split_gain=2913.03 865.635
threshold=1.0000000180025095e-35 0.58413880617562641
decision_type=2 2
left_child=-1 -2
right_child=1 -3
leaf_value=-0.00078402006030227941 -0.00049202573864417804 0.0027244416208091916
leaf_weight=528.86501303315163 49.708545006811619 243.87691328674555
leaf_count=8223 660 221
internal_value=0 0.00215862
internal_weight=0 293.585
internal_count=9104 881
is_linear=0
shrinkage=0.000770824


Tree=57
num_leaves=3
num_cat=0
split_feature=55 38
split_gain=3445.32 247.992
threshold=1.9756251521428381 0.30718456900822305
decision_type=2 2
left_child=-1 -2
right_child=1 -3
leaf_value=-0.00067143753311304664 0.0023851515854814141 0.00022394116489829466
leaf_weight=561.1519908234477 223.26822499185801 37.904541917145252
leaf_count=8743 130 231
internal_value=0 0.00213314
internal_weight=0 261.173
internal_count=9104 361
is_linear=0
shrinkage=0.000658175


Tree=58
num_leaves=3
num_cat=0
split_feature=55 39
split_gain=3873.67 284.029
threshold=1.9756251521428381 0.22955356253709722
decision_type=2 2
left_child=-1 -2
right_child=1 -3
leaf_value=-0.00032298646380639427 0.0012704108722801069 0.0001262736630743757
leaf_weight=569.3982347920537 206.75696142017841 36.15661147236824
leaf_count=8743 127 234
internal_value=0 0.00113469
internal_weight=0 242.914
internal_count=9104 361
is_linear=0
shrinkage=0.000315996


Tree=59
num_leaves=3
num_cat=0
split_feature=55 38
split_gain=3437.79 242.814
threshold=1.9756251521428381 0.30718456900822305
decision_type=2 2
left_child=-1 -2
right_child=1 -3
leaf_value=-0.00063547818664583808 0.0022531675972433476 0.00021594264451637807
leaf_weight=559.5973351970315 223.62898005545139 37.711802504956722
leaf_count=8743 130 231
internal_value=0 0.00201759
internal_weight=0 261.341
internal_count=9104 361
is_linear=0
shrinkage=0.000623157


Tree=60
num_leaves=3
num_cat=0
split_feature=35 13
split_gain=2493.92 1508.26
threshold=1.0506589713399899 0.58413880617562641
decision_type=2 2
left_child=-1 -2
right_child=1 -3
leaf_value=-0.00027681640336572834 -0.00021820732144692972 0.0010147474009941095
leaf_weight=488.79028674215078 90.724609263241291 236.17479076236486
leaf_count=7503 1291 310
internal_value=0 0.00067184
internal_weight=0 326.899
internal_count=9104 1601
is_linear=0
shrinkage=0.000273084


Tree=61
num_leaves=2
num_cat=0
split_feature=55
split_gain=3431.99
threshold=1.9756251521428381
decision_type=2
left_child=-1
right_child=-2
leaf_value=-0.00070165959894510021 0.0022262204931825023
leaf_weight=558.60888071358204 261.49117792397738
leaf_count=8743 361
internal_value=0
internal_weight=0
internal_count=9104
is_linear=0
shrinkage=0.000688219


Tree=62
num_leaves=3
num_cat=0
split_feature=56 12
split_gain=923.494 694.039
threshold=1.0000000180025095e-35 0.50667876045659954
decision_type=2 2
left_child=-1 -2
right_child=1 -3
leaf_value=-0.00062446211343623436 -0.00059214765710383132 0.00023802142924015591
leaf_weight=2049.24497205019 159.32684671878815 269.80794984102249
leaf_count=8223 645 236
internal_value=0 -7.54389e-05
internal_weight=0 429.135
internal_count=9104 881
is_linear=0
shrinkage=0.000332525


Tree=63
num_leaves=3
num_cat=0
split_feature=44 34
split_gain=933.763 222.177
threshold=1.0000000180025095e-35 1.1494484371002196
decision_type=2 2
left_child=1 -1
right_child=-2 -3
leaf_value=-0.00058297194069650122 0.00014421996165360628 -0.00024208601457837169
leaf_weight=2015.1721478402615 189.2054967880249 281.30601179599762
leaf_count=8097 214 793
internal_value=0 -0.000545002
internal_weight=0 2296.48
internal_count=9104 8890
is_linear=0
shrinkage=0.000309399


Tree=64
num_leaves=3
num_cat=0
split_feature=55 39
split_gain=3122.59 362.215
threshold=1.9756251521428381 0.28784308396186226
decision_type=2 2
left_child=-1 -2
right_child=1 -3
leaf_value=-0.00035276579805153978 0.00093454278172922455 0
leaf_weight=916.06581565737724 260.72358484566212 48.287320211529732
leaf_count=8743 130 231
internal_value=0 0.000794997
internal_weight=0 309.011
internal_count=9104 361
is_linear=0
shrinkage=0.000320618


Tree=65
num_leaves=3
num_cat=0
split_feature=55 39
split_gain=2694.89 295.237
threshold=1.9756251521428381 0.28784308396186226
decision_type=2 2
left_child=-1 -2
right_child=1 -3
leaf_value=-0.00080216060250589511 0.0018527078309228972 0
leaf_weight=900.17318001389503 280.74386395514011 49.522797212004662
leaf_count=8743 130 231
internal_value=0 0.00158
internal_weight=0 330.267
internal_count=9104 361
is_linear=0
shrinkage=0.000731329


Tree=66
num_leaves=3
num_cat=0
split_feature=55 38
split_gain=2729.87 266.815
threshold=1.9756251521428381 0.30718456900822305
decision_type=2 2
left_child=-1 -2
right_child=1 -3
leaf_value=-0.00057417527882605394 0.0013356481703844006 0
leaf_weight=903.55106472969055 276.16806077957153 52.510670647025108
leaf_count=8743 130 231
internal_value=0 0.00114276
internal_weight=0 328.679
internal_count=9104 361
is_linear=0
shrinkage=0.00052311


Tree=67
num_leaves=3
num_cat=0
split_feature=13 62
split_gain=1528.92 1159.03
threshold=0.58413880617562641 0.089349031564915318
decision_type=2 2
left_child=-1 -2
right_child=1 -3
leaf_value=-0.00081112363943273654 -0.00071232476774743016 0.0016241284518545621
leaf_weight=742.39104326069355 157.51640237867832 328.30903232842684
leaf_count=7185 1482 437
internal_value=0 0.000853688
internal_weight=0 485.825
internal_count=9104 1919
is_linear=0
shrinkage=0.000743211


Tree=68
num_leaves=3
num_cat=0
split_feature=55 57
split_gain=2654.57 188.89
threshold=1.9756251521428381 -1.1862252039866277
decision_type=2 2
left_child=-1 -2
right_child=1 -3
leaf_value=-0.0007764832285919827 0.0017202901008821802 2.7226638399575547e-05
leaf_weight=893.91972416639328 284.38106052577496 47.523274838924408
leaf_count=8743 153 208
internal_value=0 0.00151334
internal_weight=0 331.904
internal_count=9104 361
is_linear=0
shrinkage=0.000708829


Tree=69
num_leaves=3
num_cat=0
split_feature=55 39
split_gain=3010.02 336.385
threshold=1.9756251521428381 0.28784308396186226
decision_type=2 2
left_child=-1 -2
right_child=1 -3
leaf_value=-0.00038823399634546022 0.00099569458692612823 0
leaf_weight=904.26863686740398 265.91880704462528 48.067573353648186
leaf_count=8743 130 231
internal_value=0 0.000850128
internal_weight=0 313.986
internal_count=9104 361
is_linear=0
shrinkage=0.000353705


Tree=70
num_leaves=3
num_cat=0
split_feature=55 39
split_gain=2906.18 312.428
threshold=1.9756251521428381 0.28784308396186226
decision_type=2 2
left_child=-1 -2
right_child=1 -3
leaf_value=-0.00051841649341707668 0.0012851183595250411 0
leaf_weight=898.26732452213764 271.07762287557125 47.918247133493423
leaf_count=8743 130 231
internal_value=0 0.0011009
internal_weight=0 318.996
internal_count=9104 361
is_linear=0
shrinkage=0.00047288


Tree=71
num_leaves=3
num_cat=0
split_feature=56 13
split_gain=2182.38 753.263
threshold=1.0000000180025095e-35 0.58413880617562641
decision_type=2 2
left_child=-1 -2
right_child=1 -3
leaf_value=-0.00090126352416175417 -0.00067861286950456014 0.0019825780217080234
leaf_weight=837.16935910284519 76.753603301942348 307.33152768015862
leaf_count=8223 660 221
internal_value=0 0.00142309
internal_weight=0 384.085
internal_count=9104 881
is_linear=0
shrinkage=0.000825104


Tree=72
num_leaves=3
num_cat=0
split_feature=56 13
split_gain=2162.42 742.81
threshold=1.0000000180025095e-35 0.58413880617562641
decision_type=2 2
left_child=-1 -2
right_child=1 -3
leaf_value=-0.0008551740145066462 -0.00064336135088927679 0.001866911373505004
leaf_weight=833.65612381696701 76.527560628950596 308.53932725638151
leaf_count=8223 660 221
internal_value=0 0.00134155
internal_weight=0 385.067
internal_count=9104 881
is_linear=0
shrinkage=0.000783519


Tree=73
num_leaves=3
num_cat=0
split_feature=55 39
split_gain=2823.82 309.766
threshold=1.9756251521428381 0.28784308396186226
decision_type=2 2
left_child=-1 -2
right_child=1 -3
leaf_value=-0.00032499647351275698 0.00078304893032771 0
leaf_weight=903.69674751907587 274.87582758069038 48.779145359992981
leaf_count=8743 130 231
internal_value=0 0.00066866
internal_weight=0 323.655
internal_count=9104 361
is_linear=0
shrinkage=0.000296092


Tree=74
num_leaves=3
num_cat=0
split_feature=55 39
split_gain=2664.03 290.245
threshold=1.9756251521428381 0.28784308396186226
decision_type=2 2
left_child=-1 -2
right_child=1 -3
leaf_value=-0.00071161314182492533 0.0016383999772618459 0
leaf_weight=886.28166460245848 281.50957588851452 49.360590606927872
leaf_count=8743 130 231
internal_value=0 0.00139876
internal_weight=0 330.87
internal_count=9104 361
is_linear=0
shrinkage=0.00065065


Tree=75
num_leaves=3
num_cat=0
split_feature=55 39
split_gain=2889.17 305.752
threshold=1.9756251521428381 0.28784308396186226
decision_type=2 2
left_child=-1 -2
right_child=1 -3
leaf_value=-0.00050928270976515714 0.001255074568353492 0
leaf_weight=896.33381570130587 271.93785612285137 47.64886936545372
leaf_count=8743 130 231
internal_value=0 0.00107691
internal_weight=0 319.587
internal_count=9104 361
is_linear=0
shrinkage=0.000464732


Tree=76
num_leaves=3
num_cat=0
split_feature=55 39
split_gain=2664.77 287.534
threshold=1.9756251521428381 0.28784308396186226
decision_type=2 2
left_child=-1 -2
right_child=1 -3
leaf_value=-0.00071637148414873319 0.0016506537714990777 0
leaf_weight=883.79950608313084 281.48336470127106 49.149195969104767
leaf_count=8743 130 231
internal_value=0 0.00141087
internal_weight=0 330.633
internal_count=9104 361
is_linear=0
shrinkage=0.000655343


Tree=77
num_leaves=3
num_cat=0
split_feature=55 38
split_gain=2671.32 252.048
threshold=1.9756251521428381 0.30718456900822305
decision_type=2 2
left_child=-1 -2
right_child=1 -3
leaf_value=-0.00057937265513697894 0.0013324661041344585 0
leaf_weight=883.02368602156639 278.22666031122208 52.014803305268288
leaf_count=8743 130 231
internal_value=0 0.00114436
internal_weight=0 330.241
internal_count=9104 361
is_linear=0
shrinkage=0.000530104


Tree=78
num_leaves=3
num_cat=0
split_feature=55 39
split_gain=3241.4 335.699
threshold=1.9756251521428381 0.28784308396186226
decision_type=2 2
left_child=-1 -2
right_child=1 -3
leaf_value=-0.00027120505750257638 0.00074470700496219228 0
leaf_weight=896.64060252904892 255.88459028303623 45.223969146609306
leaf_count=8743 130 231
internal_value=0 0.000642218
internal_weight=0 301.109
internal_count=9104 361
is_linear=0
shrinkage=0.000247498


Tree=79
num_leaves=3
num_cat=0
split_feature=55 38
split_gain=2830.15 260.856
threshold=1.9756251521428381 0.30718456900822305
decision_type=2 2
left_child=-1 -2
right_child=1 -3
leaf_value=-0.00040776285683182607 0.00098477650823669961 0
leaf_weight=889.53401076048613 271.51329185068607 50.737702190876007
leaf_count=8743 130 231
internal_value=0 0.000848643
internal_weight=0 322.251
internal_count=9104 361
is_linear=0
shrinkage=0.000372614


Tree=80
num_leaves=3
num_cat=0
split_feature=56 12
split_gain=2183.32 722.029
threshold=1.0000000180025095e-35 0.50667876045659954
decision_type=2 2
left_child=-1 -2
right_child=1 -3
leaf_value=-0.00078635017648783032 -0.00058360671401842541 0.0017225376836451788
leaf_weight=827.31219780445099 73.880421586334705 308.91267758607864
leaf_count=8223 645 236
internal_value=0 0.00125265
internal_weight=0 382.793
internal_count=9104 881
is_linear=0
shrinkage=0.000721504


Tree=81
num_leaves=3
num_cat=0
split_feature=55 39
split_gain=2672.19 284.01
threshold=1.9756251521428381 0.28784308396186226
decision_type=2 2
left_child=-1 -2
right_child=1 -3
leaf_value=-0.0010619953774920086 0.0024585218692855923 0
leaf_weight=877.83890873193741 281.0442785769701 48.748035624623299
leaf_count=8743 130 231
internal_value=0 0.00210563
internal_weight=0 329.792
internal_count=9104 361
is_linear=0
shrinkage=0.000972742


Tree=82
num_leaves=3
num_cat=0
split_feature=55 38
split_gain=2889.55 264.174
threshold=1.9756251521428381 0.30718456900822305
decision_type=2 2
left_child=-1 -2
right_child=1 -3
leaf_value=-0.00036832387650772463 0.00090519209232053639 0
leaf_weight=892.45223791897297 268.95505352318287 50.202760934829712
leaf_count=8743 130 231
internal_value=0 0.000781001
internal_weight=0 319.158
internal_count=9104 361
is_linear=0
shrinkage=0.000336362


Tree=83
num_leaves=3
num_cat=0
split_feature=55 38
split_gain=2666.73 247.272
threshold=1.9756251521428381 0.30718456900822305
decision_type=2 2
left_child=-1 -2
right_child=1 -3
leaf_value=-0.00093585132948546378 0.0021552863727154802 0
leaf_weight=875.58841456472874 278.24526172876358 51.641104608774185
leaf_count=8743 130 231
internal_value=0 0.00185469
internal_weight=0 329.886
internal_count=9104 361
is_linear=0
shrinkage=0.000857598


Tree=84
num_leaves=3
num_cat=0
split_feature=55 39
split_gain=3011.86 310.041
threshold=1.9756251521428381 0.28784308396186226
decision_type=2 2
left_child=-1 -2
right_child=1 -3
leaf_value=-0.00037231334095617007 0.00095788211700638696 0
leaf_weight=885.87685149163008 266.0472500026226 46.309830203652382
leaf_count=8743 130 231
internal_value=0 0.000825554
internal_weight=0 312.357
internal_count=9104 361
is_linear=0
shrinkage=0.000340492


Tree=85
num_leaves=3
num_cat=0
split_feature=34 13
split_gain=1833.19 1252.17
threshold=1.0534378499626318 0.58413880617562641
decision_type=2 2
left_child=-1 -2
right_child=1 -3
leaf_value=-0.0003666514601308456 -0.00031557154945347393 0.00084709611019738657
leaf_weight=763.02349211275578 137.75812176615 303.88196909427643
leaf_count=7517 1278 309
internal_value=0 0.000479175
internal_weight=0 441.64
internal_count=9104 1587
is_linear=0
shrinkage=0.000336899


Tree=86
num_leaves=3
num_cat=0
split_feature=55 39
split_gain=2699.41 282.629
threshold=1.9756251521428381 0.28784308396186226
decision_type=2 2
left_child=-1 -2
right_child=1 -3
leaf_value=-0.0009391741931129206 0.0021964236205916136 0
leaf_weight=874.29930011183023 279.8010945469141 48.266867309808731
leaf_count=8743 130 231
internal_value=0 0.00188508
internal_weight=0 328.068
internal_count=9104 361
is_linear=0
shrinkage=0.000860881


Tree=87
num_leaves=3
num_cat=0
split_feature=55 38
split_gain=2828.64 259.409
threshold=1.9756251521428381 0.30718456900822305
decision_type=2 2
left_child=-1 -2
right_child=1 -3
leaf_value=-0.00048249328946806618 0.0011706866900703299 0
leaf_weight=880.02798264473677 271.17122910916805 50.551452144980431
leaf_count=8743 130 231
internal_value=0 0.00100976
internal_weight=0 321.723
internal_count=9104 361
is_linear=0
shrinkage=0.000441781


Tree=88
num_leaves=3
num_cat=0
split_feature=55 39
split_gain=3227.62 331.423
threshold=1.9756251521428381 0.28784308396186226
decision_type=2 2
left_child=-1 -2
right_child=1 -3
leaf_value=-0.00036263703980532371 0.00099665843325612616 0
leaf_weight=886.1052992194891 256.13047720491886 45.073525801301003
leaf_count=8743 130 231
internal_value=0 0.000860492
internal_weight=0 301.204
internal_count=9104 361
is_linear=0
shrinkage=0.000331651


Tree=89
num_leaves=3
num_cat=0
split_feature=55 38
split_gain=3320.3 286.6
threshold=1.9756251521428381 0.30718456900822305
decision_type=2 2
left_child=-1 -2
right_child=1 -3
leaf_value=-0.00028626489924634064 0.00079541328758805279 2.4276756603945592e-05
leaf_weight=903.72401712089777 250.53185671567917 46.828039273619652
leaf_count=8743 130 231
internal_value=0 0.000691378
internal_weight=0 297.36
internal_count=9104 361
is_linear=0
shrinkage=0.00026085


Tree=90
num_leaves=3
num_cat=0
split_feature=55 39
split_gain=3092.06 327.79
threshold=1.9756251521428381 0.28784308396186226
decision_type=2 2
left_child=-1 -2
right_child=1 -3
leaf_value=-0.00031218721303225076 0.00081923670432245722 0
leaf_weight=900.1804850846529 262.69005192816257 46.608905136585236
leaf_count=8743 130 231
internal_value=0 0.000703905
internal_weight=0 309.299
internal_count=9104 361
is_linear=0
shrinkage=0.000284681


Tree=91
num_leaves=3
num_cat=0
split_feature=34 13
split_gain=1733.96 1157.86
threshold=1.0534378499626318 0.58413880617562641
decision_type=2 2
left_child=-1 -2
right_child=1 -3
leaf_value=-0.00081274819549301595 -0.00070022900260595898 0.0017808025258124155
leaf_weight=750.68662719428539 136.40595627576113 312.26598206162453
leaf_count=7517 1278 309
internal_value=0 0.00101284
internal_weight=0 448.672
internal_count=9104 1587
is_linear=0
shrinkage=0.000749024


Tree=92
num_leaves=3
num_cat=0
split_feature=55 38
split_gain=2755.11 249.217
threshold=1.9756251521428381 0.30718456900822305
decision_type=2 2
left_child=-1 -2
right_child=1 -3
leaf_value=-0.00087613710526884554 0.0020807380597852665 0
leaf_weight=872.11935915797949 274.29521942138672 50.660157844424248
leaf_count=8743 130 231
internal_value=0 0.00179645
internal_weight=0 324.955
internal_count=9104 361
is_linear=0
shrinkage=0.000803471


Tree=93
num_leaves=3
num_cat=0
split_feature=55 39
split_gain=2727.82 280.121
threshold=1.9756251521428381 0.28784308396186226
decision_type=2 2
left_child=-1 -2
right_child=1 -3
leaf_value=-0.00086051326496010456 0.0020356988397565666 0
leaf_weight=868.44029645621777 278.43988265097141 47.679032295942307
leaf_count=8743 130 231
internal_value=0 0.0017517
internal_weight=0 326.119
internal_count=9104 361
is_linear=0
shrinkage=0.000789741


Tree=94
num_leaves=3
num_cat=0
split_feature=56 12
split_gain=2190.17 718.789
threshold=1.0000000180025095e-35 0.50667876045659954
decision_type=2 2
left_child=-1 -2
right_child=1 -3
leaf_value=-0.00086374937273607131 -0.00063792815101936212 0.0019140180194332393
leaf_weight=811.73841232061386 72.694389156997204 307.61794118583202
leaf_count=8223 645 236
internal_value=0 0.00139886
internal_weight=0 380.312
internal_count=9104 881
is_linear=0
shrinkage=0.000795271


Tree=95
num_leaves=3
num_cat=0
split_feature=55 39
split_gain=2674.21 273.349
threshold=1.9756251521428381 0.28784308396186226
decision_type=2 2
left_child=-1 -2
right_child=1 -3
leaf_value=-0.00087263920017456858 0.0020341918108946616 0
leaf_weight=861.24792483448982 280.60797742009163 47.799825206398964
leaf_count=8743 130 231
internal_value=0 0.00175087
internal_weight=0 328.408
internal_count=9104 361
is_linear=0
shrinkage=0.000802051


Tree=96
num_leaves=3
num_cat=0
split_feature=55 39
split_gain=2647.88 242.081
threshold=1.9756251521428381 0.22955356253709722
decision_type=2 2
left_child=-1 -2
right_child=1 -3
leaf_value=-0.0008655585623047132 0.0020000810994231892 0
leaf_weight=857.6079119220376 278.14063170552254 51.375373333692551
leaf_count=8743 127 234
internal_value=0 0.00172433
internal_weight=0 329.516
internal_count=9104 361
is_linear=0
shrinkage=0.000796139


Tree=97
num_leaves=3
num_cat=0
split_feature=55 39
split_gain=2985.5 303.446
threshold=1.9756251521428381 0.28784308396186226
decision_type=2 2
left_child=-1 -2
right_child=1 -3
leaf_value=-0.00031238262021104592 0.00080190485263319515 0
leaf_weight=873.33162818104029 266.73844845592976 46.014039784669876
leaf_count=8743 130 231
internal_value=0 0.000692326
internal_weight=0 312.752
internal_count=9104 361
is_linear=0
shrinkage=0.000286424


Tree=98
num_leaves=3
num_cat=0
split_feature=55 39
split_gain=2871.84 284.977
threshold=1.9756251521428381 0.28784308396186226
decision_type=2 2
left_child=-1 -2
right_child=1 -3
leaf_value=-0.00031861225729753779 0.00078810864700595157 0
leaf_weight=869.79617764055729 272.24098926782608 46.270398512482643
leaf_count=8743 130 231
internal_value=0 0.000681375
internal_weight=0 318.511
internal_count=9104 361
is_linear=0
shrinkage=0.000292334


Tree=99
num_leaves=3
num_cat=0
split_feature=55 45
split_gain=2854.12 138.253
threshold=1.9756251521428381 4.5249295590635823
decision_type=2 2
left_child=-1 -2
right_child=1 -3
leaf_value=-0.00027854059535983367 0.00064497553927266688 1.4333282134243585e-05
leaf_weight=876.6871824786067 285.5891235768795 34.482381626963615
leaf_count=8743 232 129
internal_value=0 0.000589378
internal_weight=0 320.072
internal_count=9104 361
is_linear=0
shrinkage=0.000255213


Tree=100
num_leaves=3
num_cat=0
split_feature=55 57
split_gain=2683.05 177.191
threshold=1.9756251521428381 -1.1862252039866277
decision_type=2 2
left_child=-1 -2
right_child=1 -3
leaf_value=-0.00090486596766460624 0.0020605197521293087 7.1069009214135091e-05
leaf_weight=857.95810842514038 281.69990132749081 45.983380928635597
leaf_count=8743 153 208
internal_value=0 0.00182543
internal_weight=0 327.683
internal_count=9104 361
is_linear=0
shrinkage=0.000832247


Tree=101
num_leaves=3
num_cat=0
split_feature=55 39
split_gain=2656.85 240.314
threshold=1.9756251521428381 0.22955356253709722
decision_type=2 2
left_child=-1 -2
right_child=1 -3
leaf_value=-0.0009327522379791375 0.0021646309206044393 0
leaf_weight=854.32993020862341 277.67621476948261 51.11782768368721
leaf_count=8743 127 234
internal_value=0 0.00186844
internal_weight=0 328.794
internal_count=9104 361
is_linear=0
shrinkage=0.000858536


Tree=102
num_leaves=3
num_cat=0
split_feature=56 13
split_gain=2226.98 762.334
threshold=1.0000000180025095e-35 0.58413880617562641
decision_type=2 2
left_child=-1 -2
right_child=1 -3
leaf_value=-0.00047071376445868563 -0.0003514518133607381 0.0010698437557778437
leaf_weight=813.5260948240757 74.792842909693718 303.20916918665171
leaf_count=8223 660 221
internal_value=0 0.000774207
internal_weight=0 378.002
internal_count=9104 881
is_linear=0
shrinkage=0.000433231


Tree=103
num_leaves=3
num_cat=0
split_feature=35 13
split_gain=1743.42 1180.94
threshold=1.0506589713399899 0.58413880617562641
decision_type=2 2
left_child=-1 -2
right_child=1 -3
leaf_value=-0.00040505924989900767 -0.00034956182980283595 0.00090267558011427403
leaf_weight=741.04817286133766 136.71682695299387 309.81192021071911
leaf_count=7503 1291 310
internal_value=0 0.000512702
internal_weight=0 446.529
internal_count=9104 1601
is_linear=0
shrinkage=0.000374079


Tree=104
num_leaves=3
num_cat=0
split_feature=55 39
split_gain=2807.77 287.621
threshold=1.9756251521428381 0.28784308396186226
decision_type=2 2
left_child=-1 -2
right_child=1 -3
leaf_value=-0.00041816415400144073 0.0010164661634234271 0
leaf_weight=868.25283152610064 274.72825446724892 47.176100268959999
leaf_count=8743 130 231
internal_value=0 0.000875624
internal_weight=0 321.904
internal_count=9104 361
is_linear=0
shrinkage=0.000383813


Tree=105
num_leaves=3
num_cat=0
split_feature=56 12
split_gain=981.507 703.992
threshold=1.0000000180025095e-35 0.50667876045659954
decision_type=2 2
left_child=-1 -2
right_child=1 -3
leaf_value=-0.00061796188949918285 -0.00058488070245309198 0.00025987885754433687
leaf_weight=2041.9601222276688 159.30376306176186 280.76356890797615
leaf_count=8223 645 236
internal_value=0 -5.07064e-05
internal_weight=0 440.067
internal_count=9104 881
is_linear=0
shrinkage=0.000338084


Tree=106
num_leaves=3
num_cat=0
split_feature=55 38
split_gain=2909.48 285.497
threshold=1.9756251521428381 0.30718456900822305
decision_type=2 2
left_child=-1 -2
right_child=1 -3
leaf_value=-0.00022943381934585982 0.00053034369566498716 0
leaf_weight=1024.0627303123474 273.83331272006035 53.440999105572701
leaf_count=8743 130 231
internal_value=0 0.000451439
internal_weight=0 327.274
internal_count=9104 361
is_linear=0
shrinkage=0.000203915


Tree=107
num_leaves=3
num_cat=0
split_feature=56 12
split_gain=2153.74 764.61
threshold=1.0000000180025095e-35 0.50667876045659954
decision_type=2 2
left_child=-1 -2
right_child=1 -3
leaf_value=-0.00030424017569715854 -0.00023480234473194548 0.00061669397766850027
leaf_weight=958.95264222472906 83.75535586476326 315.9325528293848
leaf_count=8223 645 236
internal_value=0 0.000429115
internal_weight=0 399.688
internal_count=9104 881
is_linear=0
shrinkage=0.000271107


Tree=108
num_leaves=3
num_cat=0
split_feature=55 39
split_gain=2903.18 317.856
threshold=1.9756251521428381 0.28784308396186226
decision_type=2 2
left_child=-1 -2
right_child=1 -3
leaf_value=-0.00030693031188531523 0.00071364736274377001 0
leaf_weight=1014.7968540862203 276.77319450676441 50.154756426811218
leaf_count=8743 130 231
internal_value=0 0.000605996
internal_weight=0 326.928
internal_count=9104 361
is_linear=0
shrinkage=0.0002733


Tree=109
num_leaves=3
num_cat=0
split_feature=35 13
split_gain=1546.57 1103.81
threshold=1.0506589713399899 0.58413880617562641
decision_type=2 2
left_child=-1 -2
right_child=1 -3
leaf_value=-0.00093107584578883324 -0.00082281741455672379 0.0017451853374530416
leaf_weight=850.66380356997252 156.36019131541252 330.86014164239168
leaf_count=7503 1291 310
internal_value=0 0.000904608
internal_weight=0 487.22
internal_count=9104 1601
is_linear=0
shrinkage=0.000836807


Tree=110
num_leaves=3
num_cat=0
split_feature=55 39
split_gain=2915.42 319.454
threshold=1.9756251521428381 0.28784308396186226
decision_type=2 2
left_child=-1 -2
right_child=1 -3
leaf_value=-0.00022896107239357558 0.00053052752322940873 0
leaf_weight=1028.9310554787517 276.81287017464638 50.252313658595085
leaf_count=8743 130 231
internal_value=0 0.000450196
internal_weight=0 327.065
internal_count=9104 361
is_linear=0
shrinkage=0.000203267


Tree=111
num_leaves=3
num_cat=0
split_feature=55 39
split_gain=2898.16 312.156
threshold=1.9756251521428381 0.28784308396186226
decision_type=2 2
left_child=-1 -2
right_child=1 -3
leaf_value=-0.00032122278299094988 0.0007423239194358015 0
leaf_weight=1020.1154405549169 277.46632532775402 49.94836513698101
leaf_count=8743 130 231
internal_value=0 0.000631244
internal_weight=0 327.415
internal_count=9104 361
is_linear=0
shrinkage=0.00028572


Tree=112
num_leaves=3
num_cat=0
split_feature=55 39
split_gain=2562.35 278.526
threshold=1.9756251521428381 0.28784308396186226
decision_type=2 2
left_child=-1 -2
right_child=1 -3
leaf_value=-0.0011741642521133681 0.0024515942033126966 0
leaf_weight=993.71630631387234 291.01589934527874 51.784250661730766
leaf_count=8743 130 231
internal_value=0 0.00207507
internal_weight=0 342.8
internal_count=9104 361
is_linear=0
shrinkage=0.00105007


Tree=113
num_leaves=3
num_cat=0
split_feature=56 12
split_gain=2249.48 802.669
threshold=1.0000000180025095e-35 0.50667876045659954
decision_type=2 2
left_child=-1 -2
right_child=1 -3
leaf_value=-0.00028246205156133905 -0.00021675068381759156 0.00059774092445707039
leaf_weight=959.20887870341539 83.19285636395216 310.01458105444908
leaf_count=8223 645 236
internal_value=0 0.000417173
internal_weight=0 393.207
internal_count=9104 881
is_linear=0
shrinkage=0.000251693


Tree=114
num_leaves=3
num_cat=0
split_feature=56 13
split_gain=2151.96 790.586
threshold=1.0000000180025095e-35 0.58413880617562641
decision_type=2 2
left_child=-1 -2
right_child=1 -3
leaf_value=-0.00044201472683239084 -0.00034413525940549114 0.00090981623150941725
leaf_weight=948.6016710549593 85.47862896323204 313.3156051337719
leaf_count=8223 660 221
internal_value=0 0.000628015
internal_weight=0 398.794
internal_count=9104 881
is_linear=0
shrinkage=0.000394798


Tree=115
num_leaves=3
num_cat=0
split_feature=45 12
split_gain=1389.31 332.716
threshold=1.0000000180025095e-35 0.6597008837952425
decision_type=2 2
left_child=1 -1
right_child=-2 -3
leaf_value=-0.00081294920910695732 0.0012759116139958089 8.7892316128786944e-05
leaf_weight=813.57635647058487 247.25022074580193 274.66175647825003
leaf_count=7188 333 1583
internal_value=0 -0.000581494
internal_weight=0 1088.24
internal_count=9104 8771
is_linear=0
shrinkage=0.000732338


Tree=116
num_leaves=3
num_cat=0
split_feature=55 38
split_gain=2759.88 268.478
threshold=1.9756251521428381 0.30718456900822305
decision_type=2 2
left_child=-1 -2
right_child=1 -3
leaf_value=-0.00047895010201876416 0.001065466748014301 0
leaf_weight=999.7996953651309 279.58357217907906 53.908461213111877
leaf_count=8743 130 231
internal_value=0 0.000907239
internal_weight=0 333.492
internal_count=9104 361
is_linear=0
shrinkage=0.000427822


Tree=117
num_leaves=3
num_cat=0
split_feature=56 13
split_gain=2209.33 815.011
threshold=1.0000000180025095e-35 0.58413880617562641
decision_type=2 2
left_child=-1 -2
right_child=1 -3
leaf_value=-0.00033970387432005652 -0.00026376694037108289 0.00071657176670872791
leaf_weight=951.6104599609971 85.315284632146358 309.89183633029461
leaf_count=8223 660 221
internal_value=0 0.000495127
internal_weight=0 395.207
internal_count=9104 881
is_linear=0
shrinkage=0.000303212


Tree=118
num_leaves=3
num_cat=0
split_feature=55 39
split_gain=2724.93 296.102
threshold=1.9756251521428381 0.28784308396186226
decision_type=2 2
left_child=-1 -2
right_child=1 -3
leaf_value=-0.00053983707979878134 0.001189869975960049 0
leaf_weight=1000.4645298495889 284.30188013613224 50.937733873724937
leaf_count=8743 130 231
internal_value=0 0.00100946
internal_weight=0 335.24
internal_count=9104 361
is_linear=0
shrinkage=0.00048215


Tree=119
num_leaves=3
num_cat=0
split_feature=35 13
split_gain=1580.72 1132.28
threshold=1.0506589713399899 0.58413880617562641
decision_type=2 2
left_child=-1 -2
right_child=1 -3
leaf_value=-0.0012208511480757611 -0.0010778852651173359 0.0023418015745214926
leaf_weight=849.50645532459021 155.95522629469633 328.01805031299591
leaf_count=7503 1291 310
internal_value=0 0.00121902
internal_weight=0 483.973
internal_count=9104 1601
is_linear=0
shrinkage=0.00109759


Tree=120
num_leaves=3
num_cat=0
split_feature=34 13
split_gain=1719.68 1236.71
threshold=1.0534378499626318 0.58413880617562641
decision_type=2 2
left_child=-1 -2
right_child=1 -3
leaf_value=-0.00034737637283112035 -0.00030455024870483109 0.0007176062343750185
leaf_weight=864.3897952362895 154.76343184709549 317.65079726278782
leaf_count=7517 1278 309
internal_value=0 0.000377656
internal_weight=0 472.414
internal_count=9104 1587
is_linear=0
shrinkage=0.000311311


Tree=121
num_leaves=3
num_cat=0
split_feature=56 12
split_gain=2304.91 828.945
threshold=1.0000000180025095e-35 0.50667876045659954
decision_type=2 2
left_child=-1 -2
right_child=1 -3
leaf_value=-0.00027802180041438537 -0.00021321897642369601 0.00060482697163704376
leaf_weight=955.74950911849737 82.912779524922371 306.10449689626694
leaf_count=8223 645 236
internal_value=0 0.000422511
internal_weight=0 389.017
internal_count=9104 881
is_linear=0
shrinkage=0.000247935


Tree=122
num_leaves=3
num_cat=0
split_feature=55 55
split_gain=1599.83 466.521
threshold=1.9756251521428381 2.0333402481048934
decision_type=2 2
left_child=-1 -2
right_child=1 -3
leaf_value=-0.0004793554193595422 0.00028271261755457411 -0.00044217018015737847
leaf_weight=2173.969974398613 262.46557246148586 54.850322812795639
leaf_count=8743 131 230
internal_value=0 0.000130929
internal_weight=0 317.316
internal_count=9104 361
is_linear=0
shrinkage=0.000259553


Tree=123
num_leaves=3
num_cat=0
split_feature=55 30
split_gain=2689.93 186.013
threshold=1.9756251521428381 -0.82109337502921875
decision_type=2 2
left_child=-1 -2
right_child=1 -3
leaf_value=-0.00029956713521234153 0 0.00059509955867369268
leaf_weight=1098.8657658025622 48.821972966194153 293.86103324592113
leaf_count=8743 186 175
internal_value=0 0.000520827
internal_weight=0 342.683
internal_count=9104 361
is_linear=0
shrinkage=0.000262015


Tree=124
num_leaves=3
num_cat=0
split_feature=34 13
split_gain=1511.72 1105.82
threshold=1.0534378499626318 0.58413880617562641
decision_type=2 2
left_child=-1 -2
right_child=1 -3
leaf_value=-0.0010545211934792932 -0.0009389390574345819 0.0018553452434328635
leaf_weight=926.31503107398748 166.55085733532906 336.93969987332821
leaf_count=7517 1278 309
internal_value=0 0.000912687
internal_weight=0 503.491
internal_count=9104 1587
is_linear=0
shrinkage=0.000930324


Tree=125
num_leaves=3
num_cat=0
split_feature=56 13
split_gain=2141.78 821.227
threshold=1.0000000180025095e-35 0.58413880617562641
decision_type=2 2
left_child=-1 -2
right_child=1 -3
leaf_value=-0.00030240694866178673 -0.0002400359350494578 0.00059637364590512916
leaf_weight=1031.2357820942998 91.785282790660858 316.80744560062885
leaf_count=8223 660 221
internal_value=0 0.000399867
internal_weight=0 408.593
internal_count=9104 881
is_linear=0
shrinkage=0.00026507


Tree=126
num_leaves=3
num_cat=0
split_feature=55 39
split_gain=2766.25 314.049
threshold=1.9756251521428381 0.28784308396186226
decision_type=2 2
left_child=-1 -2
right_child=1 -3
leaf_value=-0.00033701005258764247 0.00072011408578908265 -3.9963474402911247e-06
leaf_weight=1092.450523249805 285.8316684961319 52.962638631463051
leaf_count=8743 130 231
internal_value=0 0.000604776
internal_weight=0 338.794
internal_count=9104 361
is_linear=0
shrinkage=0.000295183


Tree=127
num_leaves=3
num_cat=0
split_feature=56 13
split_gain=2009.19 756.045
threshold=1.0000000180025095e-35 0.58413880617562641
decision_type=2 2
left_child=-1 -2
right_child=1 -3
leaf_value=-0.0011768200494061997 -0.00093587933672630995 0.0021970515197075697
leaf_weight=1012.455678626895 90.981130056083202 323.87410165369511
leaf_count=8223 660 221
internal_value=0 0.00147471
internal_weight=0 414.855
internal_count=9104 881
is_linear=0
shrinkage=0.00103595


Tree=128
num_leaves=3
num_cat=0
split_feature=55 38
split_gain=2511.19 258.291
threshold=1.9756251521428381 0.30718456900822305
decision_type=2 2
left_child=-1 -2
right_child=1 -3
leaf_value=-0.00098795875601695709 0.0019397479626261109 0
leaf_weight=1073.989722751081 292.32034575939178 57.485673367977142
leaf_count=8743 130 231
internal_value=0 0.00162809
internal_weight=0 349.806
internal_count=9104 361
is_linear=0
shrinkage=0.000868689


Tree=129
num_leaves=3
num_cat=0
split_feature=44 35
split_gain=956.051 242.526
threshold=1.0000000180025095e-35 1.1496476656862098
decision_type=2 2
left_child=1 -1
right_child=-2 -3
leaf_value=-0.00041477333461561018 0.00011588105984837686 -0.00016105658332000585
leaf_weight=2009.0853420197964 194.62976130843163 284.01951606571674
leaf_count=8098 214 792
internal_value=0 -0.000385988
internal_weight=0 2293.1
internal_count=9104 8890
is_linear=0
shrinkage=0.000225584


Tree=130
num_leaves=3
num_cat=0
split_feature=55 39
split_gain=2400.49 284.033
threshold=1.9756251521428381 0.28784308396186226
decision_type=2 2
left_child=-1 -2
right_child=1 -3
leaf_value=-0.0011271572607118572 0.0020544584817367741 -0.00012166331852905212
leaf_weight=1148.6869806051254 301.60008072853088 56.648030266165733
leaf_count=8743 130 231
internal_value=0 0.00169634
internal_weight=0 358.248
internal_count=9104 361
is_linear=0
shrinkage=0.000975184


Tree=131
num_leaves=3
num_cat=0
split_feature=55 39
split_gain=2612.29 299.466
threshold=1.9756251521428381 0.28784308396186226
decision_type=2 2
left_child=-1 -2
right_child=1 -3
leaf_value=-0.00045232910796364623 0.00088210139840759797 -2.9119797361051311e-05
leaf_weight=1163.58466540277 294.71116119623184 55.05941541492939
leaf_count=8743 130 231
internal_value=0 0.000734295
internal_weight=0 349.771
internal_count=9104 361
is_linear=0
shrinkage=0.000390069


Tree=132
num_leaves=3
num_cat=0
split_feature=55 39
split_gain=2401.21 282.127
threshold=1.9756251521428381 0.28784308396186226
decision_type=2 2
left_child=-1 -2
right_child=1 -3
leaf_value=-0.0010581986919303377 0.0019309805093930868 -0.0001093315702066215
leaf_weight=1145.6031024008989 301.57058607041836 56.478921756148338
leaf_count=8743 130 231
internal_value=0 0.00159615
internal_weight=0 358.05
internal_count=9104 361
is_linear=0
shrinkage=0.000916147


Tree=133
num_leaves=3
num_cat=0
split_feature=55 38
split_gain=2620.07 278.919
threshold=1.9756251521428381 0.30718456900822305
decision_type=2 2
left_child=-1 -2
right_child=1 -3
leaf_value=-0.00023094626323481442 0.000447392886131686 0
leaf_weight=1179.6865437626839 291.41927768290043 58.970238044857979
leaf_count=8743 130 231
internal_value=0 0.000372334
internal_weight=0 350.39
internal_count=9104 361
is_linear=0
shrinkage=0.000198461


Tree=134
num_leaves=3
num_cat=0
split_feature=35 12
split_gain=1409.66 938.45
threshold=1.0506589713399899 0.50667876045659954
decision_type=2 2
left_child=-1 -2
right_child=1 -3
leaf_value=-0.0012647496299205037 -0.0011232963528834345 0.0019056024071254073
leaf_weight=977.64761812984943 163.09104523062706 360.26260600984097
leaf_count=7503 1184 417
internal_value=0 0.000934855
internal_weight=0 523.354
internal_count=9104 1601
is_linear=0
shrinkage=0.00110072


Tree=135
num_leaves=3
num_cat=0
split_feature=55 57
split_gain=2596.07 216.956
threshold=1.9756251521428381 -1.1862252039866277
decision_type=2 2
left_child=-1 -2
right_child=1 -3
leaf_value=-0.00030634083818966963 0.00057722259025031007 0
leaf_weight=1163.9236191660166 296.93260854482651 53.793146848678589
leaf_count=8743 153 208
internal_value=0 0.000493964
internal_weight=0 350.726
internal_count=9104 361
is_linear=0
shrinkage=0.000264168


Tree=136
num_leaves=3
num_cat=0
split_feature=34 13
split_gain=1549.4 1198.61
threshold=1.0534378499626318 0.58413880617562641
decision_type=2 2
left_child=-1 -2
right_child=1 -3
leaf_value=-0.00029134037067667231 -0.00026153504296999607 0.00050764058948482452
leaf_weight=1009.6909549236298 179.94641426205635 336.44765466451645
leaf_count=7517 1278 309
internal_value=0 0.00023516
internal_weight=0 516.394
internal_count=9104 1587
is_linear=0
shrinkage=0.000251592


Tree=137
num_leaves=3
num_cat=0
split_feature=55 39
split_gain=2688.48 322.831
threshold=1.9756251521428381 0.28784308396186226
decision_type=2 2
left_child=-1 -2
right_child=1 -3
leaf_value=-0.00032400646447880839 0.0006508706373800293 -2.494006700507524e-05
leaf_weight=1169.1431804746389 291.26840832829475 55.632567629218102
leaf_count=8743 130 231
internal_value=0 0.000539432
internal_weight=0 346.901
internal_count=9104 361
is_linear=0
shrinkage=0.000279097


Tree=138
num_leaves=3
num_cat=0
split_feature=56 13
split_gain=2006.32 783.927
threshold=1.0000000180025095e-35 0.58413880617562641
decision_type=2 2
left_child=-1 -2
right_child=1 -3
leaf_value=-0.00035872644019734463 -0.00028969523375664677 0.00064590608497749229
leaf_weight=1088.343162804842 96.606294363737106 326.16973154246807
leaf_count=8223 660 221
internal_value=0 0.00042168
internal_weight=0 422.776
internal_count=9104 881
is_linear=0
shrinkage=0.000310285


Tree=139
num_leaves=3
num_cat=0
split_feature=55 39
split_gain=2431.25 284.61
threshold=1.9756251521428381 0.28784308396186226
decision_type=2 2
left_child=-1 -2
right_child=1 -3
leaf_value=-0.00094169431680547831 0.0017384748215884002 -9.1086032408037803e-05
leaf_weight=1144.5877015888691 300.55787238478661 56.225322961807251
leaf_count=8743 130 231
internal_value=0 0.00143898
internal_weight=0 356.783
internal_count=9104 361
is_linear=0
shrinkage=0.000815463


Tree=140
num_leaves=3
num_cat=0
split_feature=55 39
split_gain=2411.36 281.258
threshold=1.9756251521428381 0.28784308396186226
decision_type=2 2
left_child=-1 -2
right_child=1 -3
leaf_value=-0.0010878867410393763 0.0019972304261148478 -0.00010496228650377367
leaf_weight=1140.0336440354586 301.15239441394806 56.211504220962524
leaf_count=8743 130 231
internal_value=0 0.00165354
internal_weight=0 357.364
internal_count=9104 361
is_linear=0
shrinkage=0.000943


Tree=141
num_leaves=3
num_cat=0
split_feature=34 11
split_gain=1421.38 819.014
threshold=1.0534378499626318 0.47321872193399678
decision_type=2 2
left_child=-1 -2
right_child=1 -3
leaf_value=-0.00085038179645484943 -0.00074051651972308779 0.0012156398509060669
leaf_weight=973.68077318370342 147.1417555809021 372.59547889232635
leaf_count=7517 1081 506
internal_value=0 0.000641185
internal_weight=0 519.737
internal_count=9104 1587
is_linear=0
shrinkage=0.000741184


Tree=142
num_leaves=3
num_cat=0
split_feature=55 39
split_gain=2376.01 276.235
threshold=1.9756251521428381 0.28784308396186226
decision_type=2 2
left_child=-1 -2
right_child=1 -3
leaf_value=-0.0010454610436729981 0.0019013966190481624 -0.00010216914795142289
leaf_weight=1131.4714614152908 302.11999332904816 56.216045156121254
leaf_count=8743 130 231
internal_value=0 0.00157429
internal_weight=0 358.336
internal_count=9104 361
is_linear=0
shrinkage=0.000907891


Tree=143
num_leaves=3
num_cat=0
split_feature=34 13
split_gain=1402.62 1044.82
threshold=1.0534378499626318 0.58413880617562641
decision_type=2 2
left_child=-1 -2
right_child=1 -3
leaf_value=-0.0010315672858235284 -0.00092684969895512142 0.0016558148832175042
leaf_weight=965.96224518120289 174.14277866482735 345.71430103480816
leaf_count=7517 1278 309
internal_value=0 0.000771695
internal_weight=0 519.857
internal_count=9104 1587
is_linear=0
shrinkage=0.000900886


Tree=144
num_leaves=3
num_cat=0
split_feature=55 39
split_gain=2513.24 294.072
threshold=1.9756251521428381 0.28784308396186226
decision_type=2 2
left_child=-1 -2
right_child=1 -3
leaf_value=-0.00029345099800857693 0.00055599309189881263 -2.5340064254491116e-05
leaf_weight=1153.6809405684471 297.94687789678574 55.929458886384964
leaf_count=8743 130 231
internal_value=0 0.00046089
internal_weight=0 353.876
internal_count=9104 361
is_linear=0
shrinkage=0.000253625


Tree=145
num_leaves=3
num_cat=0
split_feature=55 39
split_gain=2349.8 272.281
threshold=1.9756251521428381 0.28784308396186226
decision_type=2 2
left_child=-1 -2
right_child=1 -3
leaf_value=-0.0012563728116388802 0.002269514518313039 -0.00012313776159693241
leaf_weight=1124.4924354404211 302.80518226325512 56.190655902028084
leaf_count=8743 130 231
internal_value=0 0.00187945
internal_weight=0 358.996
internal_count=9104 361
is_linear=0
shrinkage=0.00109268


Tree=146
num_leaves=3
num_cat=0
split_feature=55 39
split_gain=2621.65 304.138
threshold=1.9756251521428381 0.28784308396186226
decision_type=2 2
left_child=-1 -2
right_child=1 -3
leaf_value=-0.00020932090779489444 0.00041177653018896682 -1.3977582789957247e-05
leaf_weight=1155.9964447468519 293.92725856602192 55.102904662489891
leaf_count=8743 130 231
internal_value=0 0.000342547
internal_weight=0 349.03
internal_count=9104 361
is_linear=0
shrinkage=0.000180809


Tree=147
num_leaves=3
num_cat=0
split_feature=55 39
split_gain=2476.03 288.48
threshold=1.9756251521428381 0.28784308396186226
decision_type=2 2
left_child=-1 -2
right_child=1 -3
leaf_value=-0.00033217564277442557 0.000622673970996371 -2.9229198244504618e-05
leaf_weight=1146.7179740071297 299.1166745275259 55.939872145652771
leaf_count=8743 130 231
internal_value=0 0.000516218
internal_weight=0 355.057
internal_count=9104 361
is_linear=0
shrinkage=0.000287523


Tree=148
num_leaves=3
num_cat=0
split_feature=56 10
split_gain=1860.42 627.917
threshold=1.0000000180025095e-35 0.47202926482269486
decision_type=2 2
left_child=-1 -2
right_child=1 -3
leaf_value=-0.0010600818597053937 -0.00083318195878013439 0.0017339250248306747
leaf_weight=1054.4596548378468 86.483588263392448 340.89858950674534
leaf_count=8223 604 277
internal_value=0 0.00117977
internal_weight=0 427.382
internal_count=9104 881
is_linear=0
shrinkage=0.000924142


Tree=149
num_leaves=3
num_cat=0
split_feature=55 57
split_gain=2332.47 191.296
threshold=1.9756251521428381 -1.1862252039866277
decision_type=2 2
left_child=-1 -2
right_child=1 -3
leaf_value=-0.0011384534843405277 0.0019849612810044965 0
leaf_weight=1118.6196173876524 304.97639329731464 54.410297825932503
leaf_count=8743 153 208
internal_value=0 0.00169688
internal_weight=0 359.387
internal_count=9104 361
is_linear=0
shrinkage=0.000991397


Tree=150
num_leaves=3
num_cat=0
split_feature=55 38
split_gain=2651.08 275.838
threshold=1.9756251521428381 0.30718456900822305
decision_type=2 2
left_child=-1 -2
right_child=1 -3
leaf_value=-0.00023804316548482811 0.00046926201282803195 0
leaf_weight=1163.5010916441679 289.92149305343628 58.153845623135567
leaf_count=8743 130 231
internal_value=0 0.000392213
internal_weight=0 348.075
internal_count=9104 361
is_linear=0
shrinkage=0.000205293


Tree=151
num_leaves=3
num_cat=0
split_feature=55 39
split_gain=2558 298.786
threshold=1.9756251521428381 0.28784308396186226
decision_type=2 2
left_child=-1 -2
right_child=1 -3
leaf_value=-0.00028828819718470258 0.00055514556394069151 -2.2630305372647367e-05
leaf_weight=1153.9488548636436 296.29394763708115 55.662021309137344
leaf_count=8743 130 231
internal_value=0 0.000460768
internal_weight=0 351.956
internal_count=9104 361
is_linear=0
shrinkage=0.00024915


Tree=152
num_leaves=3
num_cat=0
split_feature=55 38
split_gain=2645.25 272.759
threshold=1.9756251521428381 0.30718456900822305
decision_type=2 2
left_child=-1 -2
right_child=1 -3
leaf_value=-0.00024676839446639062 0.00048915778158802178 0
leaf_weight=1147.668481990695 289.71933436393738 57.843230590224266
leaf_count=8743 130 231
internal_value=0 0.000409599
internal_weight=0 347.563
internal_count=9104 361
is_linear=0
shrinkage=0.000213576


Tree=153
num_leaves=3
num_cat=0
split_feature=34 13
split_gain=1507.49 1150.58
threshold=1.0534378499626318 0.58413880617562641
decision_type=2 2
left_child=-1 -2
right_child=1 -3
leaf_value=-0.00024370267581123455 -0.00021871387992341315 0.00041540521643816918
leaf_weight=993.92837265133858 177.82250893115997 339.37636081874371
leaf_count=7517 1278 309
internal_value=0 0.000193424
internal_weight=0 517.199
internal_count=9104 1587
is_linear=0
shrinkage=0.000211318


Tree=154
num_leaves=3
num_cat=0
split_feature=55 38
split_gain=2628.02 270.819
threshold=1.9756251521428381 0.30718456900822305
decision_type=2 2
left_child=-1 -2
right_child=1 -3
leaf_value=-0.00029030857067958212 0.00056940121685563976 0
leaf_weight=1155.6333663612604 290.63025896251202 57.966530993580818
leaf_count=8743 130 231
internal_value=0 0.000476465
internal_weight=0 348.597
internal_count=9104 361
is_linear=0
shrinkage=0.000250792


Tree=155
num_leaves=3
num_cat=0
split_feature=55 38
split_gain=2603.74 268.04
threshold=1.9756251521428381 0.30718456900822305
decision_type=2 2
left_child=-1 -2
right_child=1 -3
leaf_value=-0.00032890951403003078 0.00064473508132063687 0
leaf_weight=1140.1092744022608 291.09978167712688 57.955071747303009
leaf_count=8743 130 231
internal_value=0 0.000539778
internal_weight=0 349.055
internal_count=9104 361
is_linear=0
shrinkage=0.000285127


Tree=156
num_leaves=3
num_cat=0
split_feature=55 39
split_gain=2654.53 307.435
threshold=1.9756251521428381 0.28784308396186226
decision_type=2 2
left_child=-1 -2
right_child=1 -3
leaf_value=-0.00022642091138824937 0.00044814807964926461 -1.4418406399231885e-05
leaf_weight=1166.5124651789665 293.02012906968594 55.060497313737869
leaf_count=8743 130 231
internal_value=0 0.000372869
internal_weight=0 348.081
internal_count=9104 361
is_linear=0
shrinkage=0.000195139


Tree=157
num_leaves=3
num_cat=0
split_feature=55 39
split_gain=2798.17 312.787
threshold=1.9756251521428381 0.28784308396186226
decision_type=2 2
left_child=-1 -2
right_child=1 -3
leaf_value=-0.00021150859348306657 0.00043776852253607452 -5.3906590566673743e-06
leaf_weight=1170.4055639952421 287.65818263590336 53.498766258358955
leaf_count=8743 130 231
internal_value=0 0.000366781
internal_weight=0 341.157
internal_count=9104 361
is_linear=0
shrinkage=0.000182137


Tree=158
num_leaves=3
num_cat=0
split_feature=35 10
split_gain=1551.86 940.665
threshold=1.0506589713399899 0.47202926482269486
decision_type=2 2
left_child=-1 -2
right_child=1 -3
leaf_value=-0.00019800215677810533 -0.00017306384188459952 0.00030896108966082852
leaf_weight=997.74833972752094 152.37881389260292 362.85067580640316
leaf_count=7503 1094 507
internal_value=0 0.000162059
internal_weight=0 515.229
internal_count=9104 1601
is_linear=0
shrinkage=0.000171453


Tree=159
num_leaves=3
num_cat=0
split_feature=34 13
split_gain=1444.5 1080.02
threshold=1.0534378499626318 0.58413880617562641
decision_type=2 2
left_child=-1 -2
right_child=1 -3
leaf_value=-0.0011145239365131501 -0.00099988397074174135 0.0018398887247433732
leaf_weight=968.43536926805973 174.12041728198528 342.9908562451601
leaf_count=7517 1278 309
internal_value=0 0.00086395
internal_weight=0 517.111
internal_count=9104 1587
is_linear=0
shrinkage=0.000972752


Tree=160
num_leaves=3
num_cat=0
split_feature=56 13
split_gain=2078.24 807.625
threshold=1.0000000180025095e-35 0.58413880617562641
decision_type=2 2
left_child=-1 -2
right_child=1 -3
leaf_value=-0.00026205206230468737 -0.00020990174092211895 0.00048801038886577762
leaf_weight=1085.940190076828 95.616820111870766 322.40422475337982
leaf_count=8223 660 221
internal_value=0 0.0003209
internal_weight=0 418.021
internal_count=9104 881
is_linear=0
shrinkage=0.000226773


Tree=161
num_leaves=3
num_cat=0
split_feature=55 38
split_gain=2425.4 251.984
threshold=1.9756251521428381 0.30718456900822305
decision_type=2 2
left_child=-1 -2
right_child=1 -3
leaf_value=-0.0011381040225484904 0.0021042729901612459 0
leaf_weight=1126.7814541608095 297.08825588226318 58.960356652736664
leaf_count=8743 130 231
internal_value=0 0.00175437
internal_weight=0 356.049
internal_count=9104 361
is_linear=0
shrinkage=0.000989357


Tree=162
num_leaves=3
num_cat=0
split_feature=55 55
split_gain=1709.79 470.993
threshold=1.9756251521428381 2.0333402481048934
decision_type=2 2
left_child=-1 -2
right_child=1 -3
leaf_value=-0.00032340391076961526 0.00020264527796433164 -0.00029264431923165852
leaf_weight=2168.4351355433464 273.84083914756775 55.538211181759834
leaf_count=8743 131 230
internal_value=0 0.00010207
internal_weight=0 329.379
internal_count=9104 361
is_linear=0
shrinkage=0.000177838


Tree=163
num_leaves=3
num_cat=0
split_feature=55 38
split_gain=2348.95 251.269
threshold=1.9756251521428381 0.30718456900822305
decision_type=2 2
left_child=-1 -2
right_child=1 -3
leaf_value=-0.0012892814691772569 0.0022518584333932707 -2.4009342178330572e-05
leaf_weight=1183.2762207686901 300.82684387266636 60.749410450458527
leaf_count=8743 130 231
internal_value=0 0.00185926
internal_weight=0 361.576
internal_count=9104 361
is_linear=0
shrinkage=0.00110691


Tree=164
num_leaves=3
num_cat=0
split_feature=44 35
split_gain=951.105 241.151
threshold=1.0000000180025095e-35 1.1496476656862098
decision_type=2 2
left_child=1 -1
right_child=-2 -3
leaf_value=-0.00042473883688057599 0.00012294417737401307 -0.00016292330910265901
leaf_weight=2004.4986758679152 195.6669956445694 284.15495803952217
leaf_count=8098 214 792
internal_value=0 -0.000394939
internal_weight=0 2288.65
internal_count=9104 8890
is_linear=0
shrinkage=0.000233988


Tree=165
num_leaves=3
num_cat=0
split_feature=55 39
split_gain=2662.03 309.477
threshold=1.9756251521428381 0.28784308396186226
decision_type=2 2
left_child=-1 -2
right_child=1 -3
leaf_value=-0.00021958030287245849 0.00040901672069247797 -2.1704817499450171e-05
leaf_weight=1286.2242425531149 296.72408518195152 56.815431877970695
leaf_count=8743 130 231
internal_value=0 0.000337412
internal_weight=0 353.54
internal_count=9104 361
is_linear=0
shrinkage=0.000184163


Tree=166
num_leaves=3
num_cat=0
split_feature=34 10
split_gain=1321.33 800.538
threshold=1.0534378499626318 0.47202926482269486
decision_type=2 2
left_child=-1 -2
right_child=1 -3
leaf_value=-0.00090590849621998099 -0.00080258139610554433 0.0011382974106789326
leaf_weight=1071.2285148352385 161.50176045298576 383.28434602916241
leaf_count=7517 1081 506
internal_value=0 0.000541254
internal_weight=0 544.786
internal_count=9104 1587
is_linear=0
shrinkage=0.000769481


Tree=167
num_leaves=3
num_cat=0
split_feature=55 38
split_gain=2264.48 249.926
threshold=1.9756251521428381 0.30718456900822305
decision_type=2 2
left_child=-1 -2
right_child=1 -3
leaf_value=-0.0014812969854918379 0.0024285551676607254 -9.7696568963481886e-05
leaf_weight=1245.1562581211329 304.15201607346535 62.595796674489975
leaf_count=8743 130 231
internal_value=0 0.0019822
internal_weight=0 366.748
internal_count=9104 361
is_linear=0
shrinkage=0.00125401


Tree=168
num_leaves=3
num_cat=0
split_feature=55 39
split_gain=2247.29 272.997
threshold=1.9756251521428381 0.28784308396186226
decision_type=2 2
left_child=-1 -2
right_child=1 -3
leaf_value=-0.0011077073559516797 0.0018154998947238158 -0.00018569205813697838
leaf_weight=1240.3393143266439 307.87360544502735 59.19164565205574
leaf_count=8743 130 231
internal_value=0 0.00147562
internal_weight=0 367.065
internal_count=9104 361
is_linear=0
shrinkage=0.000938786


Tree=169
num_leaves=3
num_cat=0
split_feature=56 13
split_gain=1949.51 797.132
threshold=1.0000000180025095e-35 0.58413880617562641
decision_type=2 2
left_child=-1 -2
right_child=1 -3
leaf_value=-0.00027406977504633228 -0.00022569888633305603 0.00045621264666938081
leaf_weight=1195.9903477430344 104.66424761712551 331.89708606898785
leaf_count=8223 660 221
internal_value=0 0.000284942
internal_weight=0 436.561
internal_count=9104 881
is_linear=0
shrinkage=0.000230961


Tree=170
num_leaves=3
num_cat=0
split_feature=55 39
split_gain=2503.09 306.139
threshold=1.9756251521428381 0.28784308396186226
decision_type=2 2
left_child=-1 -2
right_child=1 -3
leaf_value=-0.0002204420039419991 0.0003890583502447108 -3.2578994093887237e-05
leaf_weight=1288.5129193514585 301.79938217997551 58.711318880319595
leaf_count=8743 130 231
internal_value=0 0.000317433
internal_weight=0 360.511
internal_count=9104 361
is_linear=0
shrinkage=0.000184769


Tree=171
num_leaves=3
num_cat=0
split_feature=34 39
split_gain=1308.52 689.979
threshold=1.0534378499626318 0.1357216499996711
decision_type=2 2
left_child=-1 -2
right_child=1 -3
leaf_value=-0.00098070040281338262 -0.00084870958136579861 0.0011529561686675605
leaf_weight=1061.9696990698576 147.28441166877747 396.64095290005207
leaf_count=7517 999 588
internal_value=0 0.000585258
internal_weight=0 543.925
internal_count=9104 1587
is_linear=0
shrinkage=0.000835095


Tree=172
num_leaves=3
num_cat=0
split_feature=56 13
split_gain=1749.6 706.336
threshold=1.0000000180025095e-35 0.58413880617562641
decision_type=2 2
left_child=-1 -2
right_child=1 -3
leaf_value=-0.0010596116289598562 -0.0008795063840205731 0.0016223674791191701
leaf_weight=1159.361210539937 103.49693410098553 338.99472996592522
leaf_count=8223 660 221
internal_value=0 0.00100498
internal_weight=0 442.492
internal_count=9104 881
is_linear=0
shrinkage=0.000900933


Tree=173
num_leaves=3
num_cat=0
split_feature=55 38
split_gain=2481.28 270.535
threshold=1.9756251521428381 0.30718456900822305
decision_type=2 2
left_child=-1 -2
right_child=1 -3
leaf_value=-0.00023898294397542154 0.00041840372920599179 -8.3655005753589572e-06
leaf_weight=1277.2424678951502 299.00706580281258 61.595931857824326
leaf_count=8743 130 231
internal_value=0 0.00034362
internal_weight=0 360.603
internal_count=9104 361
is_linear=0
shrinkage=0.000200836


Tree=174
num_leaves=3
num_cat=0
split_feature=55 30
split_gain=2231.09 173.072
threshold=1.9756251521428381 -0.82109337502921875
decision_type=2 2
left_child=-1 -2
right_child=1 -3
leaf_value=-0.0011337992976816792 0 0.0017675771675363763
leaf_weight=1231.8116486370564 54.179242551326752 313.06775605678558
leaf_count=8743 186 175
internal_value=0 0.00150762
internal_weight=0 367.247
internal_count=9104 361
is_linear=0
shrinkage=0.000962789


Tree=175
num_leaves=3
num_cat=0
split_feature=56 62
split_gain=1732.81 626.944
threshold=1.0000000180025095e-35 0.28537778962482979
decision_type=2 2
left_child=-1 -2
right_child=1 -3
leaf_value=-0.0010078204850327769 0.0014778953775555919 -0.00082323178220931078
leaf_weight=1152.1005650013685 347.59800615906715 94.901460990309715
leaf_count=8223 271 610
internal_value=0 0.000951561
internal_weight=0 442.499
internal_count=9104 881
is_linear=0
shrinkage=0.000858423


Tree=176
num_leaves=3
num_cat=0
split_feature=55 39
split_gain=2532.55 304.918
threshold=1.9756251521428381 0.28784308396186226
decision_type=2 2
left_child=-1 -2
right_child=1 -3
leaf_value=-0.00023363372133925004 0.00042083838672863277 -3.0230604241048578e-05
leaf_weight=1267.6210738271475 300.45233125984669 58.048375889658928
leaf_count=8743 130 231
internal_value=0 0.000344864
internal_weight=0 358.501
internal_count=9104 361
is_linear=0
shrinkage=0.0001968


Tree=177
num_leaves=3
num_cat=0
split_feature=55 57
split_gain=2211.47 194.243
threshold=1.9756251521428381 -1.1862252039866277
decision_type=2 2
left_child=-1 -2
right_child=1 -3
leaf_value=-0.0011562827103091631 0.0018225947242503605 0
leaf_weight=1224.196182012558 310.18125069141388 57.413279667496681
leaf_count=8743 153 208
internal_value=0 0.00153132
internal_weight=0 367.595
internal_count=9104 361
is_linear=0
shrinkage=0.000983596


Tree=178
num_leaves=3
num_cat=0
split_feature=34 13
split_gain=1282.23 1000.85
threshold=1.0534378499626318 0.58413880617562641
decision_type=2 2
left_child=-1 -2
right_child=1 -3
leaf_value=-0.0013229080998464924 -0.0012049978440549166 0.0018829079499952481
leaf_weight=1044.9993162304163 188.43077556788921 353.88694462180138
leaf_count=7517 1278 309
internal_value=0 0.00078518
internal_weight=0 542.318
internal_count=9104 1587
is_linear=0
shrinkage=0.00113157


Tree=179
num_leaves=3
num_cat=0
split_feature=56 62
split_gain=1936.94 713.741
threshold=1.0000000180025095e-35 0.28537778962482979
decision_type=2 2
left_child=-1 -2
right_child=1 -3
leaf_value=-0.00022051437756179216 0.00035366989261335728 -0.00017905356718392006
leaf_weight=1186.230716124177 340.24015925824642 96.285201698541641
leaf_count=8223 271 610
internal_value=0 0.000229389
internal_weight=0 436.525
internal_count=9104 881
is_linear=0
shrinkage=0.000186275


Tree=180
num_leaves=3
num_cat=0
split_feature=55 39
split_gain=2368.76 289.433
threshold=1.9756251521428381 0.28784308396186226
decision_type=2 2
left_child=-1 -2
right_child=1 -3
leaf_value=-0.00035788090926344815 0.00061289165829872061 -5.5740004693981232e-05
leaf_weight=1249.0269523561001 304.93466199934483 58.868720635771751
leaf_count=8743 130 231
internal_value=0 0.000499543
internal_weight=0 363.803
internal_count=9104 361
is_linear=0
shrinkage=0.000302739


Tree=181
num_leaves=3
num_cat=0
split_feature=44 35
split_gain=898.617 226.193
threshold=1.0000000180025095e-35 1.1496476656862098
decision_type=2 2
left_child=1 -1
right_child=-2 -3
leaf_value=-0.0005562891515082549 0.00015808686382736537 -0.00021497731176147391
leaf_weight=1995.4139423817396 193.14721569418907 281.88283953070641
leaf_count=8098 214 792
internal_value=0 -0.000517641
internal_weight=0 2277.3
internal_count=9104 8890
is_linear=0
shrinkage=0.000312375


Tree=182
num_leaves=3
num_cat=0
split_feature=55 39
split_gain=2119.38 271.03
threshold=1.9756251521428381 0.28784308396186226
decision_type=2 2
left_child=-1 -2
right_child=1 -3
leaf_value=-0.0010305355366595245 0.0015516869956825334 -0.00023368467558448696
leaf_weight=1312.4337439984083 310.76675350964069 61.587999194860458
leaf_count=8743 130 231
internal_value=0 0.00123764
internal_weight=0 372.355
internal_count=9104 361
is_linear=0
shrinkage=0.000858735


Tree=183
num_leaves=3
num_cat=0
split_feature=55 57
split_gain=2319.53 209.438
threshold=1.9756251521428381 -1.1862252039866277
decision_type=2 2
left_child=-1 -2
right_child=1 -3
leaf_value=-0.00028449652430017957 0.00043850989414706928 -4.2199418107778878e-06
leaf_weight=1348.7462263852358 309.97424484789371 58.734742745757103
leaf_count=8743 153 208
internal_value=0 0.000365349
internal_weight=0 368.709
internal_count=9104 361
is_linear=0
shrinkage=0.000235013


Tree=184
num_leaves=3
num_cat=0
split_feature=56 13
split_gain=1639.49 687.02
threshold=1.0000000180025095e-35 0.58413880617562641
decision_type=2 2
left_child=-1 -2
right_child=1 -3
leaf_value=-0.0013111614033837859 -0.0011075958972832198 0.0018320186503883011
leaf_weight=1229.4736916422844 109.32428602874279 342.90067851543427
leaf_count=8223 660 221
internal_value=0 0.00108136
internal_weight=0 452.225
internal_count=9104 881
is_linear=0
shrinkage=0.00109547


Tree=185
num_leaves=3
num_cat=0
split_feature=56 12
split_gain=1780.98 726.203
threshold=1.0000000180025095e-35 0.50667876045659954
decision_type=2 2
left_child=-1 -2
right_child=1 -3
leaf_value=-0.00028400041918451925 -0.00023712904177744794 0.00041429360156632517
leaf_weight=1265.2736507952213 108.21456390619278 343.03252400457859
leaf_count=8223 645 236
internal_value=0 0.000249651
internal_weight=0 451.247
internal_count=9104 881
is_linear=0
shrinkage=0.000235131


Tree=186
num_leaves=3
num_cat=0
split_feature=34 12
split_gain=1378.41 990.609
threshold=1.0534378499626318 0.50667876045659954
decision_type=2 2
left_child=-1 -2
right_child=1 -3
leaf_value=-0.00022721107662884173 -0.00020510116793550997 0.00030242565010308323
leaf_weight=1161.0431140959263 188.05769787728786 369.92451240122318
leaf_count=7517 1171 416
internal_value=0 0.000126938
internal_weight=0 557.982
internal_count=9104 1587
is_linear=0
shrinkage=0.000188241


Tree=187
num_leaves=3
num_cat=0
split_feature=56 13
split_gain=1645.88 688.082
threshold=1.0000000180025095e-35 0.58413880617562641
decision_type=2 2
left_child=-1 -2
right_child=1 -3
leaf_value=-0.0012305021769055465 -0.0010380339694713017 0.0017251033690840383
leaf_weight=1228.564085200429 109.1563720703125 342.86441875994205
leaf_count=8223 660 221
internal_value=0 0.00102035
internal_weight=0 452.021
internal_count=9104 881
is_linear=0
shrinkage=0.00102833


Tree=188
num_leaves=3
num_cat=0
split_feature=55 38
split_gain=2380.52 267.896
threshold=1.9756251521428381 0.30718456900822305
decision_type=2 2
left_child=-1 -2
right_child=1 -3
leaf_value=-0.00025420114775753495 0.00041490511076836028 -2.1515076053225078e-05
leaf_weight=1341.6838877946138 303.12009799480438 63.608112692832947
leaf_count=8743 130 231
internal_value=0 0.000336572
internal_weight=0 366.728
internal_count=9104 361
is_linear=0
shrinkage=0.000210352


Tree=189
num_leaves=3
num_cat=0
split_feature=55 39
split_gain=2121.47 269.887
threshold=1.9756251521428381 0.28784308396186226
decision_type=2 2
left_child=-1 -2
right_child=1 -3
leaf_value=-0.0012250081549981845 0.0018521127590974001 -0.00027257294040384334
leaf_weight=1305.4380026608706 310.66749101877213 61.369480416178703
leaf_count=8743 130 231
internal_value=0 0.00147953
internal_weight=0 372.037
internal_count=9104 361
is_linear=0
shrinkage=0.00102251


Tree=190
num_leaves=3
num_cat=0
split_feature=56 62
split_gain=1771.81 671.591
threshold=1.0000000180025095e-35 0.28537778962482979
decision_type=2 2
left_child=-1 -2
right_child=1 -3
leaf_value=-0.00028617193149638745 0.00040556203115211007 -0.0002372409319275703
leaf_weight=1259.5319769829512 349.04522995650768 101.89726874232292
leaf_count=8223 271 610
internal_value=0 0.000251366
internal_weight=0 450.942
internal_count=9104 881
is_linear=0
shrinkage=0.000237259


Tree=191
num_leaves=3
num_cat=0
split_feature=34 13
split_gain=1214.15 984.563
threshold=1.0534378499626318 0.58413880617562641
decision_type=2 2
left_child=-1 -2
right_child=1 -3
leaf_value=-0.0011544525571557933 -0.0010600565901037183 0.0015093557213455937
leaf_weight=1116.3550508916378 200.28410859405994 357.87833307683468
leaf_count=7517 1278 309
internal_value=0 0.000565854
internal_weight=0 558.162
internal_count=9104 1587
is_linear=0
shrinkage=0.000968379


Tree=192
num_leaves=3
num_cat=0
split_feature=56 12
split_gain=1767.79 719.258
threshold=1.0000000180025095e-35 0.50667876045659954
decision_type=2 2
left_child=-1 -2
right_child=1 -3
leaf_value=-0.00028734840715178715 -0.00023984774866806662 0.00041667766416277351
leaf_weight=1262.6496986448765 108.04887774586678 343.41612620651722
leaf_count=8223 645 236
internal_value=0 0.000250993
internal_weight=0 451.465
internal_count=9104 881
is_linear=0
shrinkage=0.000238058


Tree=193
num_leaves=3
num_cat=0
split_feature=55 39
split_gain=2111.26 267.977
threshold=1.9756251521428381 0.28784308396186226
decision_type=2 2
left_child=-1 -2
right_child=1 -3
leaf_value=-0.0010505054279450073 0.0015857019323346681 -0.00023266883630088442
leaf_weight=1300.098934084177 310.73361979424953 61.288711175322533
leaf_count=8743 130 231
internal_value=0 0.00126715
internal_weight=0 372.022
internal_count=9104 361
is_linear=0
shrinkage=0.000877945


Tree=194
num_leaves=3
num_cat=0
split_feature=56 13
split_gain=1830.69 781.094
threshold=1.0000000180025095e-35 0.58413880617562641
decision_type=2 2
left_child=-1 -2
right_child=1 -3
leaf_value=-0.00023516934196697234 -0.00019804803091284944 0.00035548448811322815
leaf_weight=1276.3734922558069 111.65439623594284 338.45030230283737
leaf_count=8223 660 221
internal_value=0 0.00021146
internal_weight=0 450.105
internal_count=9104 881
is_linear=0
shrinkage=0.000194141


Tree=195
num_leaves=3
num_cat=0
split_feature=55 38
split_gain=2106.88 242.408
threshold=1.9756251521428381 0.30718456900822305
decision_type=2 2
left_child=-1 -2
right_child=1 -3
leaf_value=-0.0013624318715243704 0.0020458743716778088 -0.00016884180269926153
leaf_weight=1297.6939385682344 307.31843188405037 64.705820143222809
leaf_count=8743 130 231
internal_value=0 0.00164265
internal_weight=0 372.024
internal_count=9104 361
is_linear=0
shrinkage=0.0011393


Tree=196
num_leaves=3
num_cat=0
split_feature=55 39
split_gain=2357.36 292.014
threshold=1.9756251521428381 0.28784308396186226
decision_type=2 2
left_child=-1 -2
right_child=1 -3
leaf_value=-0.00028362815873526269 0.00046295987058515354 -5.2497137285146917e-05
leaf_weight=1332.930506721139 306.93889044225216 60.308435335755348
leaf_count=8743 130 231
internal_value=0 0.000373899
internal_weight=0 367.247
internal_count=9104 361
is_linear=0
shrinkage=0.000235225


Tree=197
num_leaves=3
num_cat=0
split_feature=55 10
split_gain=2363.77 188.898
threshold=1.9756251521428381 0.48151636860694852
decision_type=2 2
left_child=-1 -2
right_child=1 -3
leaf_value=-0.00020688716437311955 -2.3081833332494913e-05 0.00031374489586262944
leaf_weight=1347.9568890929222 42.809832200407982 324.59517005085945
leaf_count=8743 165 196
internal_value=0 0.00027092
internal_weight=0 367.405
internal_count=9104 361
is_linear=0
shrinkage=0.000170934


Tree=198
num_leaves=3
num_cat=0
split_feature=55 38
split_gain=2373.85 265.13
threshold=1.9756251521428381 0.30718456900822305
decision_type=2 2
left_child=-1 -2
right_child=1 -3
leaf_value=-0.00025463179111431952 0.00041442148325171566 -2.0805327971058093e-05
leaf_weight=1340.8351096957922 303.32278104126453 63.502037957310677
leaf_count=8743 130 231
internal_value=0 0.000336449
internal_weight=0 366.825
internal_count=9104 361
is_linear=0
shrinkage=0.000210764


Tree=199
num_leaves=3
num_cat=0
split_feature=55 38
split_gain=2260.4 255.4
threshold=1.9756251521428381 0.30718456900822305
decision_type=2 2
left_child=-1 -2
right_child=1 -3
leaf_value=-0.00029747442123390972 0.00046774925294905563 -2.9597405334448587e-05
leaf_weight=1324.3922731131315 305.48956237733364 64.115787982940674
leaf_count=8743 130 231
internal_value=0 0.000378039
internal_weight=0 369.605
internal_count=9104 361
is_linear=0
shrinkage=0.000247205


Tree=200
num_leaves=3
num_cat=0
split_feature=55 38
split_gain=2426.1 266.85
threshold=1.9756251521428381 0.30718456900822305
decision_type=2 2
left_child=-1 -2
right_child=1 -3
leaf_value=-0.00025697674162964779 0.00042598278944002349 -1.7063521452951435e-05
leaf_weight=1340.8465982079506 302.11669090390205 62.955765664577484
leaf_count=8743 130 231
internal_value=0 0.000347139
internal_weight=0 365.072
internal_count=9104 361
is_linear=0
shrinkage=0.000212699


Tree=201
num_leaves=3
num_cat=0
split_feature=55 39
split_gain=2276.95 283.414
threshold=1.9756251521428381 0.28784308396186226
decision_type=2 2
left_child=-1 -2
right_child=1 -3
leaf_value=-0.00030427411301681579 0.00048232173308690294 -6.0166569686868263e-05
